0.028081423
0.010081293
0.010302541
0.0027330341
0.0059040142
0.016325679
-0.018236669
0.030212527
0.037855878
0.048697338
0.027153477
0.02116105
0.026749693
0.02872555
0.049929149
0.0057308711
0.037307281
0.074467048
0.023648886
0.04482935
-0.021838928
0.0038820903
0.0099723693
-0.026269715
0.0091207111
-0.020814834
0.0017702843
0.011607755
0.016506162
-0.0059185117
-0.0030008042
-0.0051818239
-0.030388974
0.016659014
0.00031811267
-0.02776012
-0.024101621
0.020381575
0.0012720404
-0.033027045
-0.016479045
0.044487838
0.032664888
0.031104615
0.02139396
0.011914062
0.052565433
-0.0093214642
0.027359601
-0.0018947484
0.043346487
0.0177569
0.049452536
0.040215626
0.046683166
0.044932012
-0.01674684
0.04424043
0.058722146
0.05119215
0.0096251974
-0.040642522
-0.008411916
-0.010598617
-0.041676242
-0.0050996318
0.0029394059
-0.02764667
-0.026957884
-0.024260148
-0.017136261
0.0026996757
-0.028942456
-0.028859768
-0.018285029
-0.010358428
-0.026625577
-0.027321283
-0.00041824672
-0.025783919
-0.025358532
-0.025860766
0.037441932
0.01193414
0.016004782
0.048813514
0.046597093
0.0083205057
0.02054723
0.025924718
0.00028405417
0.030088501
0.021367753
0.043037325
0.0033315476
0.021169262
0.025910761
0.038976852
0.043246776
0.036980417
0.0069839368
-0.0079047745
-0.024884451
-0.023444498
-0.020274516
0.0010165354
0.016157495
-0.001769144
0.010018344
-0.03000251
0.015054123
-0.04501164
-0.0030427598
0.0024845323
-0.0070598805
0.0084051341
-0.018339114
-0.024391426
-0.039117381
0.0030570873
-0.0010410403
-0.047504298
-0.034403712
-0.014019655
0.024745049
0.028241202
0.035761204
0.064758055
0.010337005
0.0034620098
0.0098517453
0.022934008
0.036380239
0.022117572
0.028090762
-0.016414896
0.012977592
0.036842726
-0.00056194101
0.043096405
0.027541321
0.04223562
0.0041449224
-0.01655185
-0.023903802
-0.0091279065
-0.008777448
-0.0058822874
0.01934501
-0.0024395571
-0.054708742
0.003107616
0.0065417285
-0.027357904
0.0057111578
0.0047260835
0.028892178
-0.037274383
-0.026117416
-0.01528387
0.019541748
0.028500423
-0.03782494
-0.040025283
0.0028324989
0.036748849
0.010854363
0.018319609
0.048675537
-0.01438523
0.0050836727
0.039728351
0.0098611685
0.052445762
0.034512985
0.023899155
0.012558145
0.0072620832
0.012815043
-0.019180322
0.03611137
0.031415597
0.03722471
0.04333926
-0.0085893953
-0.016498521
-0.022633359
-3.9676586e-05
-0.012112442
0.011484019
-0.027101004
-0.045891546
-0.0049857269
-0.023903785
-0.0080852434
0.011961669
-0.020738905
0.021810081
-0.021416735
0.0062861154
-0.037803009
0.017254455
0.0075405105
-0.0075981333
-0.033607934
-0.0040361122
0.010244762
0.033676952
-0.004502364
0.057337232
0.028712692
0.043644227
0.05309359
0.015757756
0.046177562
0.041518636
0.034332383
0.033204202
0.031666849
0.014486605
-0.0063887299
0.020527314
0.066054113
0.059016272
0.054670434
-0.044201225
0.026960779
0.023169246
-0.027920987
-0.014846236
0.022315457
-0.02837275
-0.044499088
0.0058066561
0.0025125819
-0.0088858902
0.010043107
-0.019090496
-0.018978609
0.0066569177
0.007502282
-0.029706359
0.020613536
0.0094349915
0.0040476471
-0.073071823
0.0095949965
0.031325474
0.00095725327
0.046191089
0.07165163
0.024121081
0.012292316
0.016238838
0.019941209
0.021113649
0.042981941
0.02037196
0.00012348498
0.036953546
0.014161228
-0.040269826
0.043922156
0.071871452
0.034486499
0.052595466
-0.017812891
0.011068
0.023513608
0.020748854
-0.017169347
0.022061713
0.019774714
-0.041081756
0.008957901
0.011712669
-0.014206
-0.0036052507
-0.011468757
0.0024978407
-0.048827093
-0.014424823
-0.013470943
0.012102718
0.016736161
0.0092167361
-0.21147956
-0.03205112
0.00721775
0.021579146
-0.04583241
0.090372033
0.035553001
0.014616075
-0.013531247
-0.0084684081
0.085695773
0.11395498
0.008025514
0.033788454
0.04910288
-0.035752892
-0.079648145
0.0092942808
0.024770269
0.044338081
0.061575297
0.022183461
-0.028670112
0.0072549013
-0.055260446
-0.007707594
-0.06010022
-0.057598937
0.040387418
-0.018910164
-0.0080111567
-0.037902247
-0.099608764
-0.035216473
-0.0019730851
-0.022791484
0.033837218
0.02085112
-0.0089427764
-0.016685382
0.014298494
0.011716548
0.012383541
-0.014339363
-0.034880172
-0.021649973
0.048119798
-0.018129744
0.015434109
0.011204778
0.021206804
0.038576517
0.026716307
0.026680388
-0.014044376
0.048372492
0.010163027
-0.021142192
0.0048246416
0.050529018
0.0091851316
0.019428661
0.0065415981
-0.0060062869
0.0057490491
0.03181053
0.0095458142
-0.014633314
-0.0020459786
0.0037529487
0.010070135
-0.031349704
-0.014975111
-0.02883371
-0.020959601
0.016745092
-0.0023859048
-0.0070619439
0.021419808
-0.019055765
-0.008959203
0.014550615
-0.19839554
0.024559041
0.029189995
0.039477739
0.010845704
0.066329844
0.033354554
0.0018752191
-0.0023390963
-0.020717485
0.038467873
0.0079203723
-0.0028432605
0.019119795
-0.0092832521
0.031246293
-0.026112784
0.034943473
0.015229024
0.019861972
0.050610658
-0.011000504
0.018524744
-0.01733144
-0.02366868
0.0318661
0.013689853
-0.032319676
-0.058361135
-0.030504413
0.0045371507
-0.019128652
0.0087507125
-0.0097373948
-0.02544158
0.025000321
-0.028092995
-0.023294456
-0.023114158
0.00012320395
-0.029700654
-0.032915235
0.052380167
0.030439932
0.0089702457
0.044110354
0.066155568
0.016955664
0.033556379
0.002980747
-0.0085133519
0.04688406
0.039711393
0.029608246
0.031755034
0.039928108
0.015230469
-0.00030564363
0.038564358
0.035284892
0.041820731
0.039610457
-0.021611972
0.011853906
-0.021566724
0.017852785
-0.023187801
0.016669899
-0.0061512683
-0.067033552
-0.012462444
-0.013975569
-0.046370152
-0.01472731
-0.02736998
-0.006958025
-0.036230523
-0.050811678
-0.039411243
-0.026803933
0.024327502
-0.026913829
-0.016912472
0.00042932821
-0.00024675785
0.041015394
0.009920436
0.031128006
-0.0064576752
0.038481403
0.026400309
0.048185583
0.026188722
0.046376791
-0.020415246
-0.020981375
0.036854427
-0.0022006179
0.010344831
-0.013531689
0.053262189
0.0050163507
0.018641353
-0.044901889
0.011758924
0.022418657
-0.020189017
0.013287049
0.023417244
-0.014358842
-0.0091108
0.012291943
-0.0064936937
-0.018466402
-0.03633466
0.017192539
-0.029418526
-0.031922389
-0.052063126
-0.02243128
-0.019051706
-0.0094775474
-0.026104663
-0.0041867951
-0.00061225245
0.0053543774
0.020203149
0.01191982
0.048637636
0.02777466
-0.0023249008
0.056510787
0.049925592
-0.0047649923
0.049082141
0.013720472
0.030932266
0.0021891557
0.019282132
0.030470384
0.013450178
0.040276878
0.017715355
0.00049200247
-0.0017758741
-0.00093138881
0.018830026
0.019709829
0.017860385
0.023360148
-0.0287531
-0.032809172
-0.015345654
-0.01017946
-0.00034468976
-0.0072790808
0.0160804
-0.041930899
0.0044614123
-0.0034222298
0.0084955888
-0.024623737
0.019641604
0.0034470349
-0.042151041
0.024287883
0.0069532809
0.029205909
0.022929119
0.035429232
0.041658297
0.020656629
0.0679527
0.026613938
0.021654148
0.016901227
-0.010301418
0.0076185581
0.022393128
0.066442974
0.013544914
0.03240969
0.081508324
0.048653774
0.00095125468
-0.017467832
-0.014373389
-0.019431841
0.014796676
-0.013422947
0.015355187
-0.0014626711
-0.01536267
0.015254525
-0.015651075
-0.022117738
0.0065017198
0.010034119
-0.0012898891
-0.03005919
-0.02010591
-0.0033283366
0.0029540809
-0.039842721
-0.04432378
-0.023017392
0.011413686
-0.0079975948
0.05824532
0.064424723
0.062141679
0.0057170521
0.020801198
0.055403985
0.015283825
-0.0012397927
0.019059425
0.032158311
-0.0018636355
0.018143699
0.083230928
-0.0027275749
0.060172126
0.053689834
0.025756979
0.015997713
-0.00086538965
-0.036945522
-0.031475749
0.0077738999
-0.02535034
-0.0027717727
-0.023812721
-0.0048872447
0.0010749819
-0.016748531
0.0029530069
-0.037687045
-0.012573727
0.0026840298
-0.025779674
-0.028679654
-0.029315628
0.022420296
0.02259979
-0.016423434
-0.0012303134
-0.0064770421
0.093981355
0.013054268
-0.038857024
0.066359334
0.01228881
0.065766685
-0.036357563
-0.010553613
0.023856731
0.050095852
0.066670746
-0.015688684
0.030928392
0.070140094
-0.051517081
-0.05631984
-0.0805903
-0.01606313
-0.0053048981
0.012121898
-0.05218691
-0.017952267
-0.096402459
-0.025686676
-0.015064695
-0.057441708
-0.044049539
-0.040731471
-0.044419147
-0.075483687
-0.021086195
-0.085584097
-0.082429036
-0.078618377
-0.018681997
-0.013076187
-0.048145905
-0.063051045
-0.058922689
-0.060646247
0.017685182
-0.0013241553
0.048495982
0.0068845572
0.040564343
0.0072282054
0.001550058
0.10918352
-0.012562842
-0.015535898
0.031620733
-0.013330219
0.040383194
0.019754373
0.0973401
-0.091872796
-0.13353141
0.070397146
-0.086264879
-0.004385828
0.0045085554
-0.15776247
-0.0095560234
-0.0075266077
-0.059839696
-0.0014743368
-0.07967829
-0.048715666
-0.10102083
-0.04964507
-0.050492845
-0.03429167
-0.02882611
-0.090453468
-0.047309488
-0.057419799
-0.026202921
0.036656354
-0.034487806
0.021942711
-0.064126275
-0.010398949
0.011737546
0.023670744
0.055152126
0.12325085
0.052042693
-0.014679552
0.025405655
-0.026544824
-0.062224627
-0.0075332872
0.0409142
0.056368217
-0.0021236641
0.076334268
-0.064571783
-0.02925097
0.055144805
0.1125384
-0.038966589
-0.059881646
-0.068933338
-0.021662034
-0.086769819
-0.033214875
-0.019582639
-0.076814018
-0.025803974
-0.016140739
-0.093251929
-0.035301153
0.014414792
-0.044161458
-0.048912644
-0.032809779
-0.039098237
-0.081173971
-0.040909365
-0.011137244
-0.11942886
-0.0026791529
-0.031349592
-0.088650644
0.061842263
0.14076267
0.0015866486
0.052482706
0.091067359
0.13885649
0.066964477
-0.022037949
0.071919478
0.001384433
0.12485433
0.11333597
0.14881268
0.0057895742
-0.097936712
-0.061648894
-0.044487994
-0.1082133
0.12111261
-0.13705303
-0.017873965
0.044486847
-0.10517985
-0.11480219
-0.11272776
0.059372779
-0.016920552
-0.064709812
-0.13481677
-0.18963704
0.023310835
-0.085112229
-0.027322682
0.017209124
-0.0076115462
-0.068280682
-0.16905575
-0.12997559
0.021743596
-0.15998991
-0.090871193
0.01470674
-0.10940451
0.14528413
-0.17828993
-0.10533617
-0.16132921
-0.018682862
0.0068080467
0.089868821
-0.14989668
0.0030400543
-0.036389481
0.037040845
-0.14110827
-0.13073249
0.045666143
-0.014196131
-0.0014254056
-0.069496423
-0.18285097
-0.010098279
-0.019352805
-0.081978604
-0.071157806
-0.11757906
0.031022847
-0.047343586
-0.037079629
-0.033483475
-0.062699497
-0.015299934
-0.10620124
-0.015749786
-0.087682627
-0.048979551
-6.2606166e-05
-0.073273137
-0.016857358
0.019681122
-0.15011011
-0.12873502
0.099160656
0.14979988
0.14885764
-0.17791903
-0.17935954
-0.014554139
-0.016589046
-0.099849567
-0.11669733
-0.16308263
-0.082162477
0.038186982
0.11740298
-0.021233067
-0.075026877
-0.12243523
0.042372748
-0.13048925
-0.17651553
-0.26180598
-0.071119092
-0.020444607
-0.0080510359
-0.14425258
-0.17313023
0.079636976
-0.023873834
-0.012796551
-0.069968238
-0.22276752
-0.0096930237
0.029073646
0.071376078
-0.033205725
-0.050355408
-0.033352513
0.067149229
-0.081686355
0.11105958
0.12919471
0.17509475
-0.24395087
-0.057628457
-0.13544802
0.066598207
0.2665216
-0.032299228
0.031997614
0.13554597
0.12617177
0.25934115
0.17993948
-0.074613728
0.60476393
0.076046854
-0.027662244
0.15811066
0.01809217
0.098173536
-0.063574873
-0.089675397
-0.28387529
-0.18471892
-0.15422982
-0.090287551
-0.074346617
0.051635955
-0.089412712
-0.038323775
-0.051905893
-0.035551865
-0.020948963
-0.079177611
-0.044402052
-0.15988848
-0.11409568
-0.045014776
-0.13163839
-0.075614519
0.71815699
0.75485355
-0.22808743
0.1622301
0.47637543
-0.35923448
0.19531795
0.47189665
-0.03981882
-0.11878126
-0.13725001
-0.2889677
0.2553412
-0.10326233
-0.18878938
0.16589646
0.4436757
0.20821847
-0.46017933
-0.48102304
-0.012286808
0.040806133
-0.10598216
0.12349945
0.16178019
-0.21397363
-0.052785199
-0.13496724
-0.3439841
0.23390782
0.019286782
0.21003948
-0.011835749
0.04451124
-0.084538765
-0.42993668
-0.36011603
0.13247049
-0.25727728
-0.1120232
0.099697441
-0.02144305
0.11872367
0.031844862
-0.062448855
-0.0041367481
0.35493684
0.092257693
0.19442253
-0.35115704
0.11773724
-0.063746877
-0.026112223
0.058057297
0.03660683
-0.047688317
-0.011023515
-0.1612093
0.077934735
0.13534829
0.15944164
0.078497089
-0.06871783
-0.10615159
-0.1789193
-0.13192396
-0.062471613
-0.071168505
-0.12254295
-0.27873635
-0.0045782239
-0.16057245
-0.12539774
-0.1281613
0.049192965
-0.042597391
-0.19061849
-0.16731954
-0.046905801
0.062046014
-0.055132624
-0.004914667
0.85087538
-0.076470152
-0.11809649
0.0019001166
0.21317263
-0.0053855111
-0.059884012
0.030837344
-0.20217766
-0.17991954
0.036695007
-0.0208556
-0.095627427
0.13599178
0.056679338
0.32271719
-0.067767933
-0.081195593
0.025290782
-0.21548484
0.020381728
-0.048384223
-0.082187332
-0.016712336
-0.031144477
-0.071508847
-0.081111498
-0.12320916
-0.12089124
-0.086105064
-0.051944792
-0.094347462
-0.16952714
0.03450866
-0.005621972
-0.0018445041
-0.018228123
-0.066045709
-0.031322386
-0.1508619
-0.029208906
0.28680527
0.095202327
-0.15305616
-0.147825
-0.053780586
0.012795401
-0.030832268
0.020222841
-0.22197191
-0.045143645
-0.0022650785
-0.025670303
-0.13545245
0.18848714
-0.10244427
0.33328661
-0.0027685766
-0.11439285
-0.046153259
0.035555683
-0.083683439
0.063492358
-0.41657153
-0.057270788
0.037397731
-0.12887409
-0.076834783
-0.21659036
-0.073473521
-0.057872761
0.012156026
-0.032898836
-0.18015285
0.10651015
-0.078465037
0.16843159
-0.063428827
-0.11005609
-0.05898257
0.0044777761
-0.024290916
0.14471589
-0.021319138
-0.017233556
0.11833417
0.40787253
-0.14943805
0.12119464
0.26746333
-0.10242632
-0.011784295
-0.047603317
0.039914303
0.12602699
0.20691167
0.12439828
0.38634086
0.2382887
0.097095028
-0.011430599
-0.13441135
-0.14802748
0.18144423
-0.24126254
-0.11712199
-0.10446213
-0.044591229
-0.087610602
-0.1105952
0.10184301
-0.028915308
-0.15351167
-0.15647146
-0.07925602
-0.039951172
-0.081495255
0.060517713
0.10951698
0.0039089271
-0.057824641
-0.19616383
-0.16590641
0.13229387
0.062353861
0.03613342
-0.15725638
0.10198609
0.053161561
0.074703276
0.057575587
-0.074354708
-0.022301201
0.0087704267
0.043722704
-0.070619874
0.045684319
0.019603806
0.092512242
-0.17323717
-0.10474957
0.12252384
-0.09812282
-0.033262882
-0.015104053
-0.11490936
-0.071383186
0.03599482
-0.040939379
0.013203282
-0.073078834
-0.046571508
-0.020455644
-0.024820924
-0.051841509
-0.15884158
-0.067759171
-0.015735032
-0.083574459
-0.087937601
-0.10685164
0.0311854
-0.028375234
-0.075339384
0.028495593
-0.059388287
-0.032327492
0.047737852
-0.0043732105
0.0027851004
0.07367637
-0.051995415
-0.060635999
-0.030634297
0.070090353
-0.002216456
-0.005580673
0.053228777
-0.028944347
0.019964615
-0.03197971
-0.021562323
0.033813782
-0.036322732
-0.062397707
-0.06279166
-0.099939018
0.06189486
-0.083811469
-0.04209144
0.0027533215
-0.058225073
-0.070991419
-0.0038362194
-0.030389678
0.0056550978
-0.05734865
0.0041617667
-0.095314704
-0.038990561
-0.035465661
-0.030219182
0.013122746
-0.028921794
-0.07984563
-0.075107053
0.060474724
-0.018407796
0.011392986
0.064835042
0.063989244
0.089798577
0.16912708
-0.047006153
-0.1261117
0.03345054
-0.049001671
-0.0281338
0.052988939
-0.0099388566
0.065140598
-0.044490542
-0.007252723
0.067960143
-0.11748146
-0.015480719
-0.043374319
-0.013804891
0.044819441
0.036845837
-0.041572545
-0.0074972212
-0.06397783
-0.061554506
-0.045078199
-0.15296969
-0.17366542
0.020919638
-0.045879666
-0.033818759
-0.05213676
-0.046755571
-0.015276087
0.0085886456
-0.084696606
-0.083957165
-0.12456159
0.034980141
0.026217103
0.050849792
0.038453169
0.00042848871
-0.0041921223
0.041390933
0.055559877
0.036864039
0.022384709
0.046454974
0.064021394
0.0085120909
0.021234004
0.055849425
0.0029804169
0.045026679
0.031172484
0.034125064
0.00033233146
-0.030639082
-0.0058687897
-0.0027070604
-0.038014125
0.024101581
-0.034965344
-0.01052174
-0.038758688
-0.013858948
-0.032969493
-0.011159472
-0.033464011
0.010846063
-0.0077776923
-0.0086342273
0.011498373
-0.0052010836
-0.0056944629
0.001907903
-0.015015442
0.0067485045
0.012287567
0.027054012
0.030186966
0.048655406
0.058002159
0.053429838
0.01343603
0.044683836
0.0091703152
0.0086272722
0.021704899
0.066143155
0.039123215
0.013222389
0.077440053
0.033508968
0.017035443
0.065793484
0.0086040385
0.014167578
-0.017384987
-0.02005008
-0.034901097
0.017440123
-0.031544484
0.018972369
-0.026123116
-0.013756514
-0.011639499
-0.0023280652
-0.038143344
-0.00072347285
-0.019492831
-0.021298375
-0.020331573
-0.029539833
-0.021002138
-0.0018317796
-0.02320281
-0.014605975
0.020162426
0.038520064
0.0027177599
0.032852869
0.022484463
0.020301569
0.0051617953
-0.00099578139
0.013603037
0.021972587
0.039958607
0.050739359
0.005858507
0.030833375
0.042382397
0.028234122
-0.00013618017
0.041083988
0.054851107
0.067303695
0.039625857
-0.0012212746
-0.011213469
0.018603878
-0.034177009
0.020954648
-0.033920422
-0.036305632
-0.021603396
-0.0097696278
-0.014544987
-0.030788055
-0.025576279
0.021275872
-0.0026731989
-0.0071339589
-0.032619979
0.014596834
0.0122231
-0.014842698
-0.0091807479
-0.019654602
0.056052607
0.037722956
0.029733108
0.027146107
0.021062437
-0.014512064
-0.0009533948
0.045184277
-0.020180566
0.051130522
0.014714932
0.02855357
0.030017365
0.024955282
0.050294757
-0.027203403
0.021580698
0.065173745
0.045051709
0.0050447825
0.0015699257
0.0034056993
0.017598471
-0.010916906
-0.012133601
-0.031820416
-0.018544843
0.0054301969
-0.0055753705
-0.027521852
0.005514021
-0.017201554
-0.030890619
0.0082926173
0.01742211
-0.037525915
-0.0036977115
-0.017672556
0.024736047
-0.0016275777
0.024815246
-0.0031030602
0.0044975416
0.03594888
0.032453015
0.066490434
0.036587492
0.056433365
0.042194419
-0.012903363
0.0742689
0.053574964
-0.014973455
0.057026275
0.02392618
0.0358737
-0.010803778
0.054810405
0.025713915
0.038589556
0.08188653
-0.047161959
-0.045046046
-0.032167882
-0.002612862
0.020357739
-0.023236115
-0.026645407
0.018645532
0.0069124638
-0.034157444
0.01152011
-0.04649223
-0.011438208
0.017347541
-0.0030225299
-0.036153689
-0.010957746
-0.0079446416
0.024072384
0.011974072
-0.0059140739
0.018013651
0.031070711
-0.0055002207
0.04109532
0.011457011
-0.0043770741
0.0074760602
0.039176982
0.04923876
0.011121619
0.0058512567
-0.027114384
0.0062140771
0.021928202
0.049354322
0.0078253523
0.0031211851
0.062423386
0.044576366
0.011178416
-0.00016986381
0.0083752712
0.0065856976
0.0021079867
-0.01761432
-0.036179621
-0.041240685
0.010047346
0.020713087
0.0083981436
0.00032514316
-0.017849656
0.016661439
-0.01338489
-0.024166979
-0.044171017
-0.017271252
0.011940164
-0.0072385082
-0.010904338
-0.033252962
0.038243428
0.040741667
0.044404387
0.053356636
0.063271776
0.013222109
0.0098364707
0.024615498
0.004361412
0.032285668
0.0019989745
0.06166001
0.012673055
0.035178266
0.10742995
0.0056802486
0.063620917
0.034293506
0.016305005
0.044284467
-0.012019085
0.037504509
-0.0020229076
0.013697851
-0.0095340926
-0.0061080926
-0.037567701
0.022280753
0.0069596032
0.00137425
-0.045381255
0.015723679
-0.0087342216
0.021880049
0.0061683627
0.021057196
-0.0065815551
0.022400435
-0.021073613
-0.021325281
-0.14878295
-0.048307564
0.086519845
0.0094068898
-0.021773569
0.035370018
-0.027080113
-0.033895086
0.037905153
-0.022637988
0.033476423
0.067691669
0.025417807
0.014735265
0.042543713
0.11602338
-0.055622764
0.029902121
0.029995851
-0.021077938
0.040651079
-0.041722097
0.015961649
-0.029184062
-0.02955349
0.010407777
-0.02311161
-0.12415899
0.023471385
-0.055455349
-0.00054636196
-0.025971584
-0.073718876
-0.024855053
0.025745533
-0.0089475969
-0.017779203
0.0094504608
-0.006073473
0.026373701
0.0087000318
-0.0041652098
0.023727775
0.014971474
-0.0075556859
0.025757531
0.031137848
0.028050322
0.010014914
0.014441125
0.056453347
-0.011278891
-0.0072470242
0.042431951
-0.039829258
0.0031534052
0.065043099
0.02431318
0.025696905
0.066254042
0.071176521
0.025994753
-0.019859659
-0.010896293
0.020936586
0.0076315715
0.0092079872
0.02457813
-0.018146029
0.024143204
0.0012404969
0.014315485
-0.055071417
-0.0013328607
-0.024929121
-0.0044954023
0.02053359
-0.019547787
0.033874758
-0.025960397
-3.846929e-05
-0.0055957655
-0.15370488
0.0059135212
-0.01676904
0.0093918964
0.04375748
0.064052075
-0.028042203
0.023465555
0.065031461
-0.018065628
0.027814824
-0.00043486463
0.001712504
-0.026683841
0.05463399
0.13656703
-0.016649526
0.016914789
0.030784216
0.02421049
0.028203042
-0.014779395
-0.036850099
0.00054236496
0.015009852
0.026661053
0.0039153858
0.0065928684
0.038770769
-0.031716142
-0.019614708
0.0064501353
0.0036944386
-0.013473301
-0.022186792
0.024404734
-0.02762611
-0.026945889
-0.021369182
-0.034205228
-0.026657406
-0.0066354214
0.0097233783
0.02117303
0.025072891
0.027699923
0.027325278
0.041697361
0.043685209
0.063655436
0.019674562
0.040605485
0.013950611
0.043373816
-0.012695858
0.007797854
0.048753984
-0.0080392743
0.0036190122
0.038605183
0.027962642
0.029775998
-0.019988291
-0.014385724
-0.028419117
0.000490846
0.020975504
0.010620643
0.026181202
-0.046339367
0.0019815688
-0.039155852
-0.014979701
-0.033726707
-0.0087894676
-0.028230676
-0.026103299
0.00024459159
0.0076589808
0.01061307
0.01500231
-0.035367616
0.000719745
0.0019457551
-0.017285371
0.03713407
0.055189561
0.053979009
-0.0015119101
0.058196105
0.010911206
0.028093748
0.061823364
0.0410445
-0.015023781
-0.007145884
0.0085706199
0.0099532474
0.020885609
0.04515963
0.025822593
0.032757416
0.064539239
-0.024093622
-0.013858574
-0.01691734
0.011549372
0.016888183
-0.016947314
0.015225525
-0.033248857
-0.041425429
-0.026426759
0.0099532744
-0.036665514
-0.024255011
0.012352668
0.014582622
-0.0034599879
-0.041312713
0.023065472
0.016020561
0.011681882
0.0048166509
-0.0036597289
0.033603188
0.037020627
0.030545378
0.0041584778
-0.0012947785
-0.0049924063
0.017033009
0.043290168
0.029366078
0.044897806
0.002513865
0.027637046
0.034479652
0.025795085
0.028164286
-0.020804161
0.070096873
0.055584066
0.024066839
-0.016220059
-0.031966589
-0.027383151
-0.00059805426
-0.026302811
0.018393142
-0.021196596
0.023144204
0.0041726064
-0.019359412
-0.0061394465
0.0075199776
-0.024264561
-0.016071986
-0.015161223
-0.031578727
-0.016999267
0.0069250409
-0.010658068
-0.0042742006
0.020707995
-0.007626941
0.048404682
0.036269084
0.040195215
0.0066693751
0.017489951
0.020516347
0.082446948
0.011668189
0.03193295
0.026865557
0.027534142
0.027232172
0.051818296
0.051608521
0.030208809
0.016024949
0.047942977
0.014429955
0.040895808
-0.037798822
-0.019552767
0.020078801
-0.0054978165
0.005310155
-0.023836914
-0.03804037
-0.0052288389
-0.0141855
-0.0041250638
-0.026913187
-0.013602772
-0.0071933581
0.0057051615
-0.033116348
0.0092953593
-0.016801978
-0.0026806905
0.0025319676
-0.00096995645
-0.015985237
-0.0068968413
0.0057353536
0.052790545
0.013609148
0.053355969
0.021531066
0.022768153
0.033997972
0.053841561
0.0048929178
0.039134309
0.003015327
0.037383888
0.0098852003
0.022403216
-0.025820075
0.0045852014
0.052521523
0.053817149
0.046631895
0.001600643
-0.033029292
-0.024306431
0.0061356146
-0.015893226
-0.026231222
-0.02800121
-0.001325101
0.0094342167
0.0092405165
0.0056233904
0.010458341
-0.029832333
0.0068950299
-0.032615095
0.0039837924
-0.020680947
0.0016630335
0.0001444259
-0.028823834
-0.00019199836
-0.038525231
0.026618704
0.023137402
-0.018779473
0.068667084
0.033611607
0.009528093
0.011390853
0.014109964
0.049640287
0.036944911
0.018175727
0.021570092
0.036412269
0.055002969
0.022482192
0.01211465
0.051247835
-0.0021007142
0.0015392812
-0.034821004
-0.027538408
-0.014716148
-0.041812975
-0.02337433
-0.010302943
-0.011773709
0.0042471979
0.027344478
-0.0041414192
-0.030371876
0.023685435
-0.024446484
0.0055274228
-0.030908937
-0.0032393897
-0.0074534109
-0.022699727
-0.003555411
0.011219474
0.017571529
0.0013925099
0.031918526
0.012862387
-0.0036421351
0.041596949
0.051837772
0.052825365
0.043279804
0.017106142
0.0049105603
-0.0079813777
0.018229861
0.048802007
0.02803739
0.062753893
0.019626155
0.0083925696
0.054296765
0.020996701
-0.0097323013
0.001000685
-0.0057046493
-0.017770851
-0.0047535789
-0.01148648
-0.029500566
-0.009725959
-0.0028989832
0.023099994
-0.0075377291
-0.0089289173
-0.017913625
0.026317099
-0.011978956
0.013325579
-0.029984031
-0.036180686
0.0052414681
0.017991517
-0.02761581
-0.012177622
-0.037653238
0.045733273
0.053035986
0.010590041
0.060671184
0.020104956
0.006226229
0.077321477
0.04127311
0.0069310116
0.032397401
-0.0077631189
0.037379935
0.02800747
0.02612479
0.056510169
-0.0076319575
0.024412705
0.02352917
0.016292768
0.0076797153
-0.016202949
-0.004067766
-0.021734906
-0.023458745
0.011413257
0.0045690932
0.0074164639
0.0087564923
-0.017538898
-0.0072242627
0.0061461572
-0.021431578
0.013693331
-0.033835907
0.0038895726
-0.021967785
-0.028224669
-0.010899845
-0.042017557
0.013284629
-0.012733049
0.0044196486
0.019824542
-0.0082633151
0.0555229
0.0093397489
0.002599125
0.026814528
0.029221781
0.053275365
0.033406533
0.020331452
0.031512141
0.067529276
0.033576783
0.011693126
0.021110989
0.07781934
0.060460214
-0.0038018941
-0.031593286
0.016329264
-0.022136558
-0.030201865
0.018910808
0.033130724
0.0016092221
-0.040632445
0.012965793
-0.0081201447
0.0027833763
-0.029663397
0.00361498
-0.033956334
-0.027383054
-0.03574707
0.0015267102
-0.0044475496
0.00041682922
0.016271491
0.013140588
-0.02521807
-0.0068714097
-0.016289562
-0.037779819
0.05228623
-0.017434491
0.0006977623
0.056601722
0.014384386
0.082200684
0.01258533
-0.018741598
0.013826759
0.05965009
0.010175603
-0.012777673
-0.0090728384
0.046990469
0.048242588
0.062431674
-0.043141894
0.006622266
-0.0087346751
-0.024276225
-0.016589629
0.0035749425
-0.04307149
0.00032440899
-0.0016145839
-0.035677195
-0.02279206
-0.012939724
-0.0017936893
-0.016077304
0.0098442817
0.016104702
0.021400105
-0.0045387987
-0.011224521
-0.014955786
0.0073667113
-0.00073655322
0.048196919
0.083733551
0.05833026
0.026703162
0.076165199
0.066753998
0.061749779
0.049506906
0.02550697
-0.001850846
0.067835383
0.057944372
0.0069935601
0.07067509
0.054276057
0.030950714
0.060420267
-0.010877062
0.033772964
-0.010084839
0.0083959205
-0.011321253
-0.017959826
-0.015409197
-0.031973161
-0.004823985
-0.029700091
0.0085470174
-0.011070593
-0.024001675
-0.011657691
0.016052006
-0.033397976
-0.006385087
1.2570466e-06
-0.025396219
-0.028796067
-0.035912905
-0.0047681835
0.032452937
-0.034691952
-0.029226622
-0.010026217
0.016350344
0.076076105
-0.023720384
-0.031802129
-0.001708261
0.0024697476
0.031185968
0.036157154
-0.041063551
0.023303436
0.097289734
0.044470664
0.0068479516
-0.032499682
0.13194737
0.040165234
0.056747526
-0.026859293
-0.027891787
-0.0056554517
-0.043628339
-0.034427617
-0.020828633
-0.043328073
-0.056578565
0.011001296
0.014077783
-0.0011755259
-0.010992125
-0.044904202
-0.024797648
0.011537355
-0.0044583664
-0.015171636
-0.030080251
-0.018765964
-0.036479931
0.15260477
0.085874125
-0.095262527
-0.0065731462
-0.080589578
0.10236792
-0.045305185
-0.013425481
0.030056531
0.00085960538
0.1596894
0.16426104
-0.020980023
0.14903875
0.14188994
-0.061152652
0.042988818
0.010479249
0.097332023
0.062726319
0.16389622
0.0060369344
-0.019495595
-0.054127179
-0.0071749086
-0.05824405
0.050677851
0.0095741702
-0.024789747
0.004408834
-0.02764562
0.025541054
-0.024544327
0.007716883
-0.060863599
0.015429598
-0.013888321
-0.0030795794
-0.026229672
-0.080225103
0.025335273
-0.0010808384
0.043666746
0.032821994
0.012279995
0.064812176
0.063113421
0.041028801
0.064285479
0.010098577
-0.01075878
0.052535392
0.044364642
0.016379762
0.085021488
0.02824606
0.10003453
0.061694916
0.00058944686
0.066513225
-0.0071227499
-0.0070656836
0.013682465
-0.040441714
-0.0042204396
-0.015045396
-0.046258774
-0.0025192725
0.017588923
-0.042083513
0.0022518723
-0.0069762175
-0.044894099
-0.047569305
-8.24366e-05
-0.038307585
-0.01962495
-0.0065862909
-0.055548873
-0.036265049
0.0090921205
-0.029859511
0.17014636
0.034849089
0.013395154
0.019443961
0.019041473
0.039258633
0.034364764
0.042302378
-0.00064232381
0.029387427
0.037388124
0.042389002
0.040085908
0.060657021
0.05640256
0.0027091103
0.062328093
0.026620744
0.06394159
0.03153836
0.02959685
0.0170452
0.027254252
-0.034531191
-0.040238425
-0.038176548
0.011712162
-0.020431455
-0.074379846
0.017679514
0.014343293
-0.044929627
-0.039074514
-0.0040527214
-0.0050685364
-0.040728379
-0.00085598958
-0.043567687
0.008141201
-0.025801398
0.0055708555
0.020687466
0.009253487
0.048903275
0.082896352
0.056339618
0.055253826
0.057474621
0.039879903
0.031533994
0.0089456327
-0.01251241
0.0023312119
0.017129069
0.02475683
0.028042667
0.021110892
0.071913674
0.056912862
0.048572753
-0.011145985
0.02472233
-0.013692386
-0.00044155703
-0.02778361
-0.020406581
0.0082504824
0.0034670525
-0.013234499
-0.01152054
0.027128074
-0.027698845
-0.013641866
0.0013191201
-0.030725054
-0.00047351493
-0.0039833346
0.0058179805
0.0057472996
-0.036894944
-0.012431468
-0.0024843742
-0.018397918
-0.0055756886
-0.016845919
0.0030442255
-0.00050210505
0.050242577
-0.0084357914
0.013829916
0.00214636
0.031370904
0.017521858
0.030705363
-0.0026961043
0.033983696
0.073285744
0.041555483
0.040235993
0.0050880355
0.059571855
0.056725774
0.034884512
-0.010026371
-0.01290797
0.0082101896
-0.033722837
-0.032506239
-0.0085439458
-0.0027048059
-0.031593699
-0.0049255039
-0.014526813
-0.032619875
-0.007876046
0.0027052967
-0.007442052
-0.0338137
-0.04136515
0.0017027282
0.007711973
-0.027715957
-0.03325573
0.029713931
0.024442572
0.035711858
0.0070882989
0.023502909
0.048632573
0.02432853
0.019032639
0.029560057
-0.0017886023
-0.021149106
0.016218567
0.044714533
0.055246074
0.02829301
0.04447294
0.015277048
0.0023224179
0.056748588
0.036783174
0.015244002
-0.034495864
-0.023823481
-0.0093742404
-0.0083879279
-0.013783606
0.0015711157
0.0028300318
-0.064137757
0.016075773
0.00064189016
-0.049024422
-0.00095072237
-0.011466899
-0.025911324
-0.017156884
0.010069367
0.0089845024
0.0023127722
-0.0093242927
-0.0078371083
0.0030822435
0.039411414
0.057616945
0.035246454
0.044710182
0.047932904
0.06515421
0.063675277
0.012503588
0.029939627
0.012794279
0.0059854202
0.05786825
-0.0078646094
-0.013428774
0.0058468343
0.041913766
0.030396266
0.020026073
0.0016748792
-0.0062732967
-0.029621568
-0.035404488
-0.0054676868
-0.0042149783
-0.010079034
-0.0089873616
-0.017149599
0.0034335081
-0.024043422
-0.031452104
-0.026680257
0.022837173
0.013004318
0.016932381
-0.025192022
-0.033432484
0.002481719
-0.032833818
-0.0183597
-0.050680213
-0.010540535
0.035077933
0.03644627
0.029664306
0.038124751
0.069927461
0.014356797
0.020008639
0.047085367
0.041946501
0.059539743
0.0036742559
0.04331762
0.046357121
0.057028867
-0.0037649788
0.002916347
-0.025426747
0.029207962
-0.00034635366
0.00080399663
-0.0022634475
-0.037660047
0.02079954
-0.018317264
-0.013423272
-0.028803421
-0.039066814
-0.025311608
0.0038064283
-0.020138215
0.00073649007
-0.012863906
-0.030517457
-0.003499829
-0.014884008
0.0025641562
0.0089128418
0.024328904
0.0021311359
-0.0085154427
0.026472237
0.032087114
0.028258357
0.03777457
0.031880427
0.054497372
0.042950727
0.03960621
0.033064816
0.060602196
0.046961509
-0.0086558443
0.051759928
0.051917218
0.035707887
0.02072468
-9.4632e-05
0.027503204
0.065929927
0.035950519
-0.0097653857
-0.0089745242
-0.035844766
-0.032918435
-0.03125133
-0.0093807671
0.019209733
-0.043031845
-0.016452461
0.014040936
-0.0050029252
-0.030491132
-0.0028995788
0.020992517
-0.039356049
-0.028022159
-0.022937911
0.0095471563
0.016822949
0.0035699497
-0.0053434386
0.018978063
0.023531657
0.039985843
0.01974505
0.0097370623
0.081842944
0.024871729
0.00025079786
0.034298956
0.018646583
0.0074460004
0.010221863
0.0091186753
0.010270193
0.034209047
0.048700016
0.0062871701
-0.00059410912
0.034607839
0.065624528
0.048980501
-0.012389776
0.0021402766
0.01039695
-0.0076749655
0.01423992
-0.027375709
-0.012382922
-0.0055714562
0.02750943
-0.024595153
-0.0283914
0.0034598415
0.01762107
0.016429912
-0.035030782
0.006994274
-0.014449087
-0.026652778
-0.0076649082
-0.006463489
-0.014606892
0.014995924
0.057876527
0.030178266
-0.002697679
0.06005802
0.047675706
0.022138473
0.052053876
0.051728588
0.016001333
0.0045412062
0.024909196
0.0063896901
0.052728403
0.018441733
0.022945838
0.010011575
0.079125956
0.020794533
0.030255096
-0.035484124
-0.025457595
-0.0037112588
-0.0297378
-0.01647893
-0.0094764419
0.00071807677
-0.016012877
0.021537069
-0.013603062
-0.015443713
-0.0082225436
-0.017121429
-0.024112614
-0.0090622352
0.010358818
-0.034344863
0.023936987
-0.011823918
0.012459664
-0.0087813847
0.018875213
0.021223594
0.029669825
0.02647383
0.061394621
-0.00060075411
-0.0068540238
0.031092733
0.040342197
0.041465044
0.048706803
0.043665413
0.016237216
0.0094103673
0.0072578364
0.033023465
0.024278805
0.058566429
0.033255853
0.0029987285
-0.030263139
-0.029442331
-0.0092916349
-0.0098753432
0.011761758
-0.01568523
-0.0059460504
0.0017129248
0.014960839
-0.0093027577
-0.040795021
-0.007430004
0.0203027
-0.00019696387
-0.02408349
-0.0076533374
0.012236264
-0.018730322
-0.03970132
-0.010488492
-0.022687936
0.033541061
0.022055142
0.01848156
0.038754728
0.059078809
0.00042257961
0.025359811
0.0051368866
0.051024072
0.055448975
0.014231437
0.053529147
0.021905154
0.058177654
0.04275642
0.031707034
0.0096521685
0.05183899
0.036854316
-0.0075563416
-0.01427101
-0.029906705
0.015630106
-0.029814908
-0.0045748786
-0.0063972152
-0.039654545
-0.0013268421
0.0057121809
0.0001007781
-0.0031846871
-0.016488144
-0.026878163
-0.032016315
-0.016206883
-0.0010989897
-0.019324858
-0.028886408
-0.0034958872
-0.039862797
0.036247201
0.030157348
0.061207339
0.01031897
0.029735655
0.063382119
0.0032033136
-0.002746637
-0.0050226706
0.040522095
0.023703745
0.048971184
0.046296567
0.016220022
0.061379027
0.014784582
0.025918575
-0.013707284
0.088371091
0.02392499
0.057914313
-0.0048649143
0.0017708713
0.014379553
0.0010221951
-0.026656123
-0.0044021681
-0.028791688
-0.033103611
-0.022310287
-0.016536664
-0.032942228
-0.035393648
-0.020444049
-0.0066243382
0.0040782052
0.00924767
-0.004015984
0.021209218
0.019453881
-0.018731641
0.01455716
0.0053073792
0.0018940689
0.0045294231
0.012480581
0.045132592
0.04245697
0.009761123
0.018395809
0.013075449
0.022521149
0.0036762948
-0.017132046
0.014821367
0.020313445
-0.0050063841
0.049788449
-0.0089061568
0.06246119
0.018957959
0.023553038
-0.011967598
-0.037677474
0.0071693603
-0.031668574
-0.032719929
0.0042887954
-0.048127204
-0.049940463
0.0090191923
-0.025110075
-0.045774907
-0.039838433
-0.013277609
-0.018488493
0.0010399951
-0.0037874319
-0.028362887
-0.030233094
-0.035208914
-0.012112178
0.14944333
0.0079410551
-0.029498149
-0.032314174
-0.046472207
0.09583766
0.010106871
-0.021792363
0.028297253
-0.0053853723
0.042121027
0.038125712
-0.021486148
0.10132395
0.073214702
0.01902093
0.034658119
0.0070790737
0.080702037
0.054597594
0.074849531
0.0035806405
0.0090960553
-0.021936607
-0.045525137
-0.017201316
-0.018322105
-0.0077100387
-0.01687794
-0.0013325172
-0.034807064
0.0025395239
-0.0085465237
0.025683183
-0.031362098
-0.00044532883
-0.017406074
-0.025714722
-0.040691517
-0.042122539
-0.012669427
-0.016238565
-0.014021918
0.045247566
0.012087079
0.012717632
0.040889684
-0.010162692
0.03830383
0.054604121
0.028634788
0.038514689
0.025108054
0.0097811576
0.07379543
0.031881746
0.049807046
-0.0030138067
0.031428929
0.077380054
0.0071926573
0.0022423677
-0.036796834
-0.0080377841
0.0045824391
-0.019095721
-0.021081192
-0.0010128967
0.0087569328
-0.026887013
0.0092881285
-0.020854183
-0.017097455
-0.0095178187
-0.015326524
-0.0011513202
-0.042549614
-0.011421793
0.00055320445
-0.033384699
-0.032817475
-0.025079679
0.13847157
0.013257959
0.049902175
0.026783206
-0.019247077
0.073025659
0.036099542
0.045206752
0.03031591
0.055273704
-0.0062275147
0.042070046
0.033603959
0.076362789
0.030012866
0.030234728
0.035141639
-0.0010853773
0.046015676
0.030251259
0.029092221
0.0094755469
-0.029736582
0.013642816
-0.0043240273
-0.011485539
-0.0041607013
-0.012675663
-0.018613195
0.016097395
-0.04251549
-0.034370355
-0.024912652
0.023104556
0.0087374253
-0.029080272
0.00035191476
-0.014787073
-0.01351334
-0.029712118
-0.02135017
0.023558091
0.020576151
0.0098524457
0.025671715
-0.005164043
0.078984305
0.0035256878
0.01166264
0.011944804
0.036992699
0.00089698564
0.058427509
0.044007856
0.013215685
0.060429964
0.0070679202
0.027463956
-0.0002604491
0.069047235
0.028070506
0.013880757
0.0077876193
-0.0013247405
-0.026693519
-0.0040129232
-0.024644015
0.0091943722
-0.038253177
-0.010124123
-0.028125636
-0.005505091
0.0050937543
0.0098098842
0.0099998815
-0.016993707
-0.035924815
-0.0058167358
-0.013167358
-0.0063056843
-0.001411373
0.01524133
0.014864626
0.020929458
0.034780063
0.030701227
0.0077950577
0.071835615
-0.0006030121
0.023193961
0.035168998
0.029300619
0.056840345
0.018415285
0.012757821
0.012469206
0.019733915
0.02809334
0.049837429
0.006670787
0.082285635
0.0034015882
-0.0069205705
0.018327828
0.0081336899
0.0047800881
-0.032183278
-0.030073706
-0.022472303
-0.011337503
-0.0006501652
0.024969863
-0.0068543847
-0.042974174
-0.0042468505
-0.013033638
0.0071773427
-0.038108058
-0.027147241
-0.038042661
0.0073114415
0.00075195887
-0.01537917
0.016296444
-0.012820539
0.056528732
0.041558396
0.006659667
0.043624159
0.052697834
0.033565581
0.0060741249
0.055570614
0.027821088
0.00043979101
0.050030656
0.02187093
0.024704942
0.053955663
0.0349993
-0.0080676991
0.041803434
0.041156691
0.021155182
-0.014351093
-0.020319842
-0.030122278
-0.029626664
-0.014539666
-0.017024539
-0.024845164
-0.048723653
-0.028760267
0.0078419326
-0.0085554942
-0.02727692
0.010156473
-0.0060675638
-0.015876425
0.019393338
-0.01195632
-0.030176291
-0.030875098
-0.032141969
0.0092095053
-0.00029561116
0.02057009
-0.0027233982
0.025486052
0.029613327
0.042111661
0.030208964
0.023489902
0.026934186
0.016844377
0.047773492
0.04325565
0.030057821
0.016571667
0.0025441244
0.044046465
0.012091234
0.028867103
0.057990074
0.0069261943
0.0073373197
-0.027719496
-0.039117709
-0.023411166
-0.00042944556
0.021629965
0.0054088323
-0.011272999
-0.020119481
-0.031933609
-0.034222901
-0.015442756
-0.011001614
-0.01879067
0.011760794
-0.016631281
-0.038984936
0.0024184214
0.0090425527
-0.022854947
0.017367976
0.023996584
0.021156607
0.027692452
0.043170892
0.036936209
0.02500931
0.019694384
0.014265457
0.025824383
0.035431363
0.0013693151
0.036058955
0.044028226
0.036891658
0.0035234855
0.038880341
0.0030683768
0.059877764
0.047542341
0.0246884
0.0066557191
-0.026264394
0.01755742
-0.037681874
-0.027145566
-0.021413093
-0.032614138
-0.0042693098
-0.028444489
-0.0070597348
-0.012435559
0.0059645306
0.016127801
-0.027602518
-0.0078625008
-0.039475776
-0.0071395491
0.013616052
-0.02302869
0.0065992759
-0.0050852485
-0.010860735
-0.026117548
0.0065136161
0.014633584
-0.043722324
0.058330387
-0.030123068
0.035747286
-0.018093158
-0.038230039
0.0063873017
0.0089020217
0.0032812764
-0.01724916
0.057522245
-0.0078759994
0.025178371
0.017940635
0.0061797467
-0.040349837
-0.053313415
-0.012590736
0.01254581
-0.065535724
-0.0077608335
0.016389178
0.024526553
-0.0010138352
-0.0069945087
0.0010232321
-0.011145688
-0.026295513
-0.01599972
-0.029043384
-0.080455281
-0.011720777
-0.02492287
-0.010732354
0.00060499023
-0.024173306
-0.045612328
-0.010390793
-0.0048991041
0.013635968
-0.029263673
-0.06676396
0.021045387
-0.032478515
0.039357454
0.022982452
-0.057099152
-0.02403719
-0.067477353
-0.007996629
0.019013077
0.009744389
-0.017267594
0.032177359
0.091967985
0.018598424
-0.070779487
-0.069282174
-9.1566202e-05
-0.006552475
-0.027290039
0.054699715
-0.003905585
0.0089219622
-0.0062447647
0.0060866997
-0.00049506663
-0.035534713
-0.044422828
-0.012030499
0.0074896868
-2.0072637e-06
0.0038380565
0.0055143475
0.023441395
-0.013984269
-0.056765992
-0.083456546
0.027596883
-0.032164801
-0.009285762
-0.026792364
-0.021635199
0.062067095
0.0056731948
-0.040264159
0.039176065
-0.0047448096
0.063030317
-0.007987814
0.044171978
0.029629825
0.037124924
-0.028984176
0.018457754
0.053029336
-0.0192168
-0.027007136
-0.063304983
-0.024086559
0.015547608
0.0008685693
0.026277978
-0.0017689066
0.0061820401
-0.052879732
-0.035627227
-0.039142437
0.0021154608
0.041544136
0.0011298151
0.0022954796
-0.0097036595
0.00538733
-0.016341301
-0.03773446
-0.050548729
-0.044106778
-0.10190627
0.01546935
-0.059627764
0.03344702
-0.0057191928
-0.02496131
0.010859513
-0.012905546
-0.019480232
0.064376779
-0.041665364
-0.012731545
-0.076563895
-0.041335668
-0.020592878
-0.020824179
-0.081199065
0.0019883481
0.071552239
-0.0021680193
-0.053113431
-0.051945589
-0.014897183
-0.0040032063
-0.038367275
-0.029188706
0.031493161
0.0081455261
-0.090108514
0.061896659
-0.029423987
-0.031518437
0.054139726
0.0038775911
-0.040564734
-0.048333414
-0.10504355
-0.02997251
0.053506803
0.056315359
-0.039852168
-0.12891245
-0.00048021364
-0.083447188
0.051485699
0.063251682
0.0084423227
-0.02464233
-0.0045284145
-0.0078355633
-0.013648293
0.022468187
-0.0096414378
-0.066968881
-0.020075655
0.026344901
-0.048189837
0.043975618
0.019770699
0.022879988
0.017216876
-0.00064589916
-0.069742583
0.023416732
0.025048034
0.013470602
-0.0049483925
0.030352319
0.025952516
-0.13429864
0.033557691
-0.060037374
-0.0009176333
-0.021351447
-0.0091674458
-0.028092479
-0.095620297
0.012690919
-0.025622739
-0.023300691
0.028977426
-0.022442285
-0.14176179
-0.023760453
-0.0024866713
0.069003895
0.10481528
-0.075348675
0.01310766
0.12025189
-0.05373669
0.063461833
0.030997738
-0.013365801
-0.0075279595
-0.028952165
0.0165068
-0.050585989
-0.0039282036
0.058592342
0.048763253
-0.032070488
-0.027058151
-0.037553515
0.016705938
0.0069571985
0.05336304
-0.0064163329
0.021140557
0.073230691
-0.049502432
0.027316712
-0.057024356
-0.063551292
0.013773006
-0.040995568
-0.021311423
-0.080311216
-0.015533425
0.024390865
0.014019243
-0.04796607
-0.048090614
-0.15066652
0.0095945522
-0.14950761
-0.028203409
-0.00099574588
0.08519154
0.00067122717
-0.06319958
-0.12541941
0.0086676879
0.050580651
0.089735396
-0.10732744
-0.0042272238
-0.026359176
-0.12580496
-0.11714834
-0.052548189
0.074547313
-0.019085048
0.030911064
0.0083729438
0.012747442
-0.0085540991
0.040748835
-0.015317616
0.078848004
-0.034576766
-0.10001767
0.037947718
-0.0047621764
-0.0080468226
0.0083289947
-0.024165405
0.014314701
-0.059282295
0.025738923
-0.037414134
0.033733368
0.0097457925
0.0032820657
-0.54843706
-0.11955737
0.046390019
-0.097267628
-0.055679165
0.19258565
-0.047875918
-0.035657357
0.015348232
-0.1282673
0.10736597
0.15723835
-0.11700022
0.069615029
-0.092939384
-0.080212981
-0.25491798
-0.051225737
-0.0028645659
0.0058828769
0.1179063
0.099739671
-0.21521059
-0.082317017
-0.081398249
0.034854211
-0.11786044
-0.07871557
0.27831361
-0.11099745
0.045161195
-0.066877723
-0.36226904
-0.066661656
0.05020202
0.047078393
0.019902823
0.023444721
0.035904922
-0.079670548
0.11208635
0.010664393
0.095422529
-0.065575667
-0.08295662
0.028247084
-0.0037054121
0.016332749
0.014010237
-0.081035532
-0.066432238
-0.01921422
0.023256239
-0.073467888
-0.075133607
-0.035338569
0.26257944
-0.12760632
-0.04465938
0.070231333
0.020424619
-0.0085957395
0.0057108179
-0.01295679
0.10937128
0.12748285
-0.017578309
0.084433369
0.074438468
-0.1728707
0.050725341
-0.043096986
-0.034068905
-0.041319545
-0.023405636
0.018394794
0.16376507
-0.036926776
-0.065390348
0.022056589
0.073973089
-0.032553818
-0.5097484
0.032127023
0.032207768
0.10484365
0.1480516
-0.043540981
0.078946918
0.099486068
-0.27829739
0.022222737
-0.052964088
-0.039387744
-0.022955677
0.0061631212
-0.093748622
-0.1065373
0.026463138
0.066833578
0.065034114
-0.027297406
-0.059689768
-0.020811565
0.031010164
0.021111388
0.073230259
-0.022696512
-0.0061604949
0.051188231
-0.21151809
0.052508168
-0.10053991
-0.032765582
0.031454839
-0.0037822397
-0.073988572
-0.0020929961
0.015103299
0.010285208
0.0018195317
0.009648527
-0.093031034
-0.14900139
0.077994674
-0.081727065
-0.033116717
-0.030433223
0.03567693
0.028817343
-0.026267081
-0.21283251
-0.018542962
-0.037437599
0.034519151
-0.13362285
-0.051257543
-0.035549283
-0.13473162
-0.067415409
0.027356286
0.020149332
-0.00026687587
-0.054312386
-0.080749407
0.12780188
0.010245757
-0.0042944746
-0.013611761
0.041858219
0.0036430524
-0.15086189
-0.00069788558
-0.024065074
-0.061351899
0.0087007117
-0.050021663
-0.017395046
-0.07443013
-0.005859362
-0.042031601
-0.011876029
0.027228154
-0.03128751
-0.10953245
0.069632277
-0.0088148424
0.098633714
0.042269632
0.0068065282
0.031557944
0.021826968
0.0036088375
0.048486542
-0.032992441
0.0060176495
-0.043561429
-0.034158651
-0.12030326
-0.082310528
-0.072327994
0.0030460593
0.03895165
-0.001745742
-0.053437762
-0.13122739
0.066421643
0.012350854
0.022340404
-0.027869292
0.0085134488
0.06512662
-0.09724769
-0.013356156
0.015045505
-0.061439112
0.035725169
-0.016816124
-0.029657073
-0.0079396879
-0.04291245
-0.01410016
0.00013479503
0.022166608
-0.05174543
-0.14536498
-0.011563021
-0.034261376
0.060786296
0.0064954348
-0.0029062286
-0.017046513
0.0041193413
0.020791141
-0.041365184
-0.022632159
0.016312949
-0.079500012
0.0047883801
-0.061617281
-0.035409428
-0.0079443101
-0.037437443
0.05509086
-0.020138428
0.023195883
0.020951098
0.024483532
-0.013765755
0.0061525186
-0.0090567386
0.043783851
-0.0038447236
-0.045244664
-0.0094685815
-0.054835018
-0.080303669
-0.0010248171
-0.035833899
-0.0057913917
-0.018480923
-0.034001175
-0.035686079
-0.020982118
-0.0013902984
-0.049806975
-0.11348284
-0.046144012
0.027838424
0.039929625
0.0094135553
-0.030405786
0.0056182947
-0.069090329
-0.011533489
0.017334543
0.008825196
0.0093552833
-0.043016091
-0.039644103
-0.024747118
-0.035023522
-0.063419387
0.011724261
0.034859367
-0.048945356
-0.027139267
-0.081358925
0.044595949
-0.043907661
-0.026376618
0.020754566
0.0074143624
-0.021350315
-0.038003769
-0.013986696
0.0056349607
-0.03818737
-0.042793721
-0.030148288
-0.056130666
0.0061816042
-0.033500966
-0.020279897
-0.011489633
-0.024141112
-0.051572766
-0.097368136
-0.001129236
-0.060925115
-0.013954015
0.0081630545
-0.060268197
-0.03873045
-0.10474617
-0.048443496
-0.043448072
-0.041701715
-0.030710196
-0.031005643
-0.049616572
-0.045028877
-0.0012079612
-0.04175752
0.045961391
0.095279075
0.031300969
-0.056804586
-0.047526669
0.018936753
-0.04995615
-0.0052247378
0.023499774
0.01573311
-0.04017761
-0.079971306
-0.015182156
-0.012880193
-0.070650354
-0.036532491
-0.0033366969
-0.018099343
0.04179984
-0.0059597502
-0.0017888305
0.0081423465
0.015032547
0.016960224
-0.10577454
0.0047835177
0.035971701
0.028557196
0.037880693
0.013766642
0.049033247
-0.0018396875
0.013166977
0.039110504
0.045129415
0.044140127
0.052593913
0.0047485731
0.065846138
0.053550985
-0.023443198
0.058439139
0.069573522
0.034238674
0.0063740634
-0.044665035
0.017651388
0.0011874398
-0.012624621
0.020500382
-0.020808505
-0.031635288
-0.044204414
-0.033274151
-0.033611931
0.0038039223
-0.02179311
0.015036589
-0.015825232
0.012570634
0.018616933
-0.024529552
-0.016591279
-0.02916988
-0.031949755
-0.0020435322
0.026285874
0.0073810173
0.019280368
0.038078554
0.045500625
0.0097597763
0.023331326
0.047921728
0.028963719
0.024268759
0.029714355
0.030394142
0.0045855818
0.0037686555
0.033450682
0.013734653
0.034859125
0.046490986
0.030007783
0.027758354
-0.04372064
0.0087240608
-0.011753312
-0.016244529
0.019893592
-0.010568103
-0.0084354039
-0.038991526
-0.0075830556
0.0026754329
0.0079984376
-0.036534883
0.016990127
-0.039077476
-0.0066055781
-0.010458085
-0.030637154
-0.032343239
0.013620626
-0.0067570372
-0.011969121
0.022303168
0.00017327238
0.051759299
0.047041606
0.033528846
0.0024129008
-0.0020319484
0.049625915
0.034008838
0.034827918
0.057127472
0.032944042
-0.0021005042
0.01667748
0.042959053
0.015230191
0.042065442
0.052448351
0.0096418988
0.026690571
-0.022202384
-0.034592498
-0.0053636674
-0.015431921
0.0094438279
-0.037689008
-0.0144494
-0.010453819
0.018951392
-0.04527349
-0.031605903
-0.013932456
-0.024224991
0.0091656912
0.022898892
-0.0078556715
0.014838919
0.025840692
-0.017963029
-0.014395593
-0.012176927
0.0074795568
-0.0089551834
0.043855801
0.032688487
0.04689189
0.0014133778
0.0025390016
0.059109017
0.0083276285
0.055460688
0.013111113
0.0083639631
0.011202039
0.04477711
0.073940448
0.0051919059
0.0013230192
0.067440569
0.037297979
0.0060626958
-0.00087216828
0.0075963186
-0.023228437
0.0020463103
0.014382037
0.013534711
-0.0030602997
-0.0081685055
-0.016061978
-0.022348538
-0.03134897
-0.014489764
-0.0067427983
0.022505319
0.0017445754
0.0084569333
-0.035709448
-0.022218786
0.024603721
-0.030207012
0.0051293122
-0.018623978
0.017574346
0.016660729
0.043678854
0.048409481
0.028713487
0.02659489
0.024115046
-0.012482531
0.052267373
0.014741817
0.040671438
-0.0039660945
0.060945917
0.054910172
0.031978704
0.032685988
0.041846693
0.012826859
0.005309274
-0.013896344
-0.0017990473
0.00079046463
0.0005808057
-0.015508158
-0.00544238
0.001630165
-0.020927163
-0.023256375
0.017788952
-0.023680795
-0.019930845
0.0010188259
0.0067752451
0.0196556
-0.040721066
-0.014888169
0.0059612771
-0.00253481
-0.0088048754
-0.017408775
0.031375561
0.022475827
0.036958098
0.03897728
0.04223571
0.015382458
0.0083226468
0.069491439
0.035627499
0.022500249
0.02411088
0.014154783
0.040477451
0.016784832
0.057995383
0.005684278
0.046266668
0.033157419
0.038114291
0.045836147
-0.021387273
-0.026754616
-0.0059730983
-0.011807598
-0.030076746
0.0012399053
0.004456962
0.0029428499
-0.026210722
-0.02754561
-0.040045246
0.0071581653
0.023900215
0.0085308356
-0.017313281
-0.02644562
-0.022920493
0.0081021599
-0.03463947
-0.042690121
-0.065580711
0.025033083
0.027433924
0.013401108
0.047765374
0.043667711
0.023233604
0.02735153
0.040782392
0.0065209763
0.030400062
0.0063212621
0.017523207
0.044761684
0.019025702
0.027068213
0.0050463914
0.0096336436
0.073902406
0.032518923
0.036275145
-0.039053556
0.0044830153
-4.598622e-05
0.019481134
0.016056072
0.020406554
-0.038916055
-0.0095323268
0.017148018
-0.02802079
-0.014445134
0.012889686
0.0076953303
0.004327313
-0.023221591
0.026806407
-0.018652678
0.030280815
-0.0087391604
-0.027761573
-0.20041427
-0.035910271
0.020608613
-0.019663755
0.028557966
0.060183682
0.013908689
0.010283321
0.014650778
-0.021472227
0.064052336
0.06863682
0.012260418
0.043546304
0.028528767
0.021863276
-0.033496372
-0.014618942
0.062318686
0.023605287
0.049964786
-0.0018300527
-0.067217246
-0.034720138
-0.055625815
0.0047729397
-0.060933914
-0.086667165
0.023297628
-0.035863988
-0.0048642247
-0.025641797
-0.055812456
-0.01128244
0.037340909
-0.0069674915
-0.011066968
-0.013419149
0.012643404
-0.0023176952
0.024014194
0.02042648
0.045497816
0.0055013872
0.020093061
0.0027251339
0.088486709
-0.0071427422
0.0039929776
0.052906446
0.029256009
0.0021541766
0.013176413
0.036534254
-0.020093184
0.028559119
0.041239958
-0.0017256659
0.037224066
0.038290337
0.04800874
0.038410958
-0.0017647604
0.004982566
-0.001490062
0.003941888
-0.012686392
-0.01426321
0.004042685
0.011810367
0.011798291
-0.0070794304
-0.022355374
0.013289941
-0.040081207
-0.0063667754
0.043304261
0.01756658
0.0093392162
0.001745943
0.013866819
-0.01933036
-0.16287668
0.039755434
-0.010924702
0.04949908
0.024421312
0.032972597
-0.024589472
0.028232671
0.03190428
0.032039858
0.032441795
-0.0019524678
0.0059268442
0.0061084465
0.027259296
0.096765295
0.044588704
0.028924322
0.040280502
0.024700828
0.0056604254
-0.0439182
-0.0080602253
-0.02187478
-0.015746132
-0.0031097401
-0.040913962
0.017640311
0.01223531
0.0017585953
-0.031398218
-0.037222307
0.00035292975
-0.024247672
-0.036091037
0.037439343
-0.013071842
-0.028694168
0.0042503201
0.011066539
0.0038438239
-0.04890132
-0.0060436684
0.0043807873
0.034669392
0.047183219
0.069837503
0.035686776
0.01001187
0.012655258
0.018316222
0.011085602
0.030381003
0.044111498
-0.0095265638
-0.0096861888
0.027050149
-0.0022691111
-0.0062535624
0.035106283
-0.0022756979
0.0066661625
-0.022968611
0.015630327
-0.0029686247
0.006435059
-0.00037681908
-0.017443188
0.029079055
-0.051252726
-0.039143581
-0.0051686964
-0.030544147
-0.034558475
0.015356923
-0.036650553
0.0020329654
0.0095645841
0.0063334317
0.017291294
-0.0073491638
-0.034343351
-0.040426552
0.035494834
-0.0045253607
0.028182985
0.073424868
0.060713388
0.032041285
-0.010389403
0.058321908
0.038904965
0.017555462
0.023023229
-0.00095835433
0.037857622
0.0045808591
0.00049417897
-0.01564147
-0.0079870531
0.031082809
0.006689562
0.039326962
-0.041945018
-0.019608984
0.0092124157
0.0046888022
0.023784563
0.0070093269
-0.0088333981
-0.01344582
-0.036889695
0.0044559673
-0.0032319343
0.011976701
-0.034805298
-0.021477651
0.01987472
-0.0073125027
-0.038143933
0.027175646
-0.00090130669
0.012563276
-0.029141027
-0.019535614
-0.0081208451
0.023829091
0.01243588
0.025615314
-0.0033128583
-0.010591303
0.052767668
0.025149582
0.0658338
0.00099065667
0.023445321
0.025936954
0.03924926
0.05033705
-0.00070393202
-0.015299262
0.059378669
0.015709136
0.055400353
-0.027854213
-0.02287896
0.0071134209
4.7791353e-05
-0.011582452
-0.013491551
-0.011551552
-0.017364845
0.022974495
-0.012596278
-0.012262986
0.011410087
0.0042371079
0.011025715
-0.029783495
-0.042540591
-0.031636059
-0.0083852587
-0.0057748952
0.0085971281
-0.01826953
0.0020030965
0.017904639
0.018123075
0.020405127
0.015032735
0.016789202
-0.0015557297
0.053904653
0.049826551
0.051226299
0.057789329
-0.0059996843
0.023760319
0.040113572
0.050212845
-0.010897529
0.0062540583
0.07293193
0.0066129593
0.043048479
-0.041474495
-0.037201419
-0.0040955981
-0.023563441
-0.015382325
-0.003858757
-0.018997336
-0.0017357187
-0.038305398
-0.03502496
-0.043378688
-0.015330743
-0.0013416787
-0.029639693
0.013014255
0.0090704132
-0.00025884161
0.020843113
-0.011777995
-0.017231632
0.020737877
0.012129373
0.025533352
0.032495644
0.010616812
0.0086866645
0.025989881
0.0042268215
0.049858287
0.042387445
0.00057645357
-0.0079540536
0.038011122
0.012559132
0.013451956
0.035077292
-0.014753137
0.031610455
0.07671231
0.022538943
0.038964454
0.0022691402
0.0063942773
-0.02168881
-0.026447684
0.001247555
-0.021317808
0.0087519279
-0.023809077
0.0055592977
-0.020383848
-0.038513415
-0.032677658
0.013493634
0.0085053043
-0.015885495
0.0061703292
-0.012727438
0.0078416867
-0.00050357374
-0.026913002
-0.0033253515
-0.0031641894
-0.040468883
-0.0044567152
0.13446173
-0.032547649
0.0099605173
-0.025773508
0.029499205
0.00014702685
0.11338586
0.15833072
0.051973376
-0.035714317
0.044179931
0.11418381
-0.055955816
0.10632566
0.039229933
0.014318231
0.11032207
-0.0045998949
0.0073919785
0.02683958
0.0084475325
-0.074647747
-0.042160053
-0.14237672
-0.0040358873
-0.011897066
-0.059663571
-0.032685135
-0.0085522821
-0.056278344
0.015056838
-0.0033656047
-0.014249412
0.029524727
-0.0094877882
0.0028308753
-0.023951162
-0.05753376
0.0045197643
0.024623074
-0.011296046
0.059151631
0.02946502
0.040633418
0.065755121
0.14474207
-0.038423333
0.050741717
0.013222009
0.14895317
-0.052701764
0.0057476168
0.06973543
-0.052364308
0.076352239
0.028176395
-0.043403048
0.035285283
-0.040102046
-0.069105923
-0.04672927
0.0074708294
0.013528638
-0.031422634
-0.058094185
-0.01217196
-0.019038688
-0.065998025
-0.047067147
-0.015265462
0.0058508478
-0.0058201519
0.0012692037
0.0047753737
-0.0097032292
0.025623877
-0.069051929
-0.034851335
0.032661747
0.022764839
0.053456325
-0.017498299
0.094556287
0.076937452
0.019790351
0.06456697
-0.0014793242
-0.056371223
0.035395183
0.045597319
0.12813884
-0.068373546
0.021959906
0.020316474
-0.079986945
0.016084865
-0.038080495
-0.026501533
0.025299098
-0.060232379
-0.061104372
-0.034217097
-0.019706629
0.0337415
0.0092078708
-0.026598509
-0.031589523
-0.030830359
-0.051531602
-0.016016709
0.017690552
-0.022863317
-0.021848276
-0.015284717
-0.038207348
-0.033067755
-0.010231075
-0.045058724
-0.056235582
0.037155874
-0.014587415
0.024185652
-0.077891022
0.0089514498
0.090857483
-0.0054262383
-0.073043995
0.042174034
-0.10004844
0.1956114
0.14829166
0.056164972
-0.018608673
0.15149359
0.0040139491
-0.18237419
0.0013608066
0.099328972
0.058487456
0.18832207
-0.091515936
-0.061108317
-0.03776522
-0.089175418
0.012062129
-0.012903503
-0.14567302
0.016902586
-0.034634177
0.030662661
0.067711003
-0.082263529
-0.015127627
0.071311742
-0.05203199
-0.12729698
-0.079213567
0.041198146
-0.0039482852
-0.013140309
-0.040464215
0.070471518
0.056911893
-0.11276656
-0.05010584
0.040980726
0.0032623978
0.032625835
-0.043263156
-0.093680739
0.13858487
0.17248899
0.065476239
0.068090007
0.087136969
0.062541865
-0.04358273
0.13344777
0.12892191
0.072413795
0.22090212
-0.028122138
-0.050387032
-0.068010382
-0.10135741
0.0077320733
-0.023964055
-0.09240444
0.021580312
-0.094689667
0.041034356
0.020685518
-0.055562291
-0.01786558
-0.0064656571
0.02211828
-0.07487116
-0.017956885
0.02185802
0.046363417
0.0066563245
0.0210752
0.06557858
0.0073470413
-0.10001402
0.025013845
0.11402619
0.039782386
0.040787902
0.10045874
-0.0053170598
0.11181436
0.14411224
0.044265639
0.083200954
0.205213
-8.0769169e-05
-0.14638719
-0.10090179
0.13204341
0.066370882
0.14652225
-0.00033937977
-0.022034386
-0.13570371
-0.085931212
0.041622017
-0.043416206
-0.059303965
-0.033532191
-0.032531999
0.050917294
0.04412036
-0.015223336
-0.0035308963
0.014714073
-0.042360291
-0.1479757
-0.1444826
0.050686177
0.020225877
0.11626933
-0.019953387
-0.18525295
0.20258877
0.032385577
0.058087762
0.096137196
0.084274024
0.20704769
0.033834897
0.17448024
0.097737908
0.047263499
0.21221331
0.0010601644
0.14717859
-0.0030814195
-0.15256692
0.21148498
0.076390013
0.14885189
0.070738539
-0.1493748
0.031461593
-0.029086487
-0.038809408
0.072826125
-0.02932208
-0.020349352
0.015440231
-0.063099638
-0.004857752
-0.029329488
0.047007281
0.026852608
0.050513014
-0.15464573
-0.065249413
0.16284685
0.014054975
0.076116562
-0.031916805
-0.29774401
-0.10483295
-0.19931345
-0.2188897
-0.16065751
-0.087677591
-0.1562639
-0.14133106
-0.024039812
-0.43699822
0.093626909
0.17980175
0.0095641511
-0.051046822
0.21307646
-0.074020773
-0.16736753
-0.043489944
-0.10796872
-0.1405663
0.057498045
0.045830291
-0.18965065
-0.045894749
-0.21064483
0.053734284
-0.13394612
-0.24388346
0.020742577
-0.1004876
0.12318298
0.12732887
-0.14155264
-0.026947668
0.21222603
-0.19735837
-0.10177682
0.021613741
0.071240991
0.11447099
0.089785479
-0.014195002
-0.12179246
0.183037
-0.026201144
-0.044312056
0.20699081
0.080751173
0.016431486
0.15114585
0.018410271
0.025561729
-0.061792072
0.2555595
-0.0015539236
-0.028374476
-0.028550461
0.14419734
0.42772004
0.077518366
0.042757198
0.069821507
-0.098775379
0.0086978525
-0.063441671
-0.12872167
0.036252875
-0.071269371
-0.055908091
0.23060724
-0.010832972
-0.018169653
-0.17176275
0.027543696
0.0056635467
-0.015646126
-0.16361292
0.022866953
0.18249723
-0.012094393
-0.087339252
-0.025359873
-0.15250444
-0.16558348
-0.15888432
-0.13253687
-0.21389279
0.14574045
-0.22648838
-0.36028299
0.031708825
-0.21534167
0.20256214
0.057739396
-0.1163187
-0.087472364
0.050224286
0.62749249
-0.14718097
-0.1694511
-0.084861599
-0.19427924
0.26356223
-0.048796132
-0.089360751
0.021821573
-0.095711417
0.020048985
-0.037907701
-0.14465383
0.18026328
-0.10770723
0.012112993
-0.046606325
-0.067670718
-0.032544933
-0.012224714
0.3102493
-0.09937267
-0.10632873
-0.087543704
-0.11826027
0.063215472
0.03692551
-0.14646305
0.23835924
0.057619952
0.28690749
-0.060067367
0.13623634
0.31454039
0.099308893
0.017927982
-0.022850307
-0.06266135
0.31598389
-0.15771005
-0.054898091
0.053527731
-0.022296797
0.05405369
0.068981707
0.079443529
0.026244901
-0.15545192
-0.049884968
-0.037600059
0.037767325
0.0084977206
0.030563012
0.075508364
-0.030869691
-0.085185088
-0.09263134
-0.081019275
0.01095332
-0.040241525
0.0036458704
0.017287094
-0.02702773
0.016556323
-0.0045078378
-0.00057635864
-0.10302365
0.073745795
-0.060613353
0.060753632
0.078758694
0.33103147
-0.026897842
0.14795671
0.2054445
0.18753067
0.039124481
-0.015217967
-0.032478239
0.063553907
-0.069566995
-0.051866371
-0.056090232
0.021794138
-0.053968757
-0.04192581
0.022495566
0.0091105793
-0.16040614
-0.12582341
-0.0029674014
0.04123066
0.0080159549
0.088236824
0.10931996
0.014282572
-0.0051737637
-0.0038505837
-0.12808944
-0.074177854
-0.039570056
-0.066896029
-0.036593456
-0.021758899
-0.075844184
-0.04560535
-0.018072689
0.0095547847
0.064118914
-0.19833246
0.0037655993
0.037600026
0.057844169
0.044611067
-0.01987092
-0.033915192
0.10082972
-0.018419916
0.14703971
-0.046622943
0.044414423
-0.097693279
-0.015381091
0.072902411
0.0074986927
0.05213413
-0.031520586
-0.077996954
0.15753831
-0.098678902
-0.012498028
-0.01757036
0.013938067
0.0075135478
0.010773988
-0.076038249
0.071625039
-0.025422076
0.02962753
-0.044258144
-0.028246401
-0.016456747
-0.059347712
-0.037375569
-0.02726916
-0.012908645
-0.0277048
-0.036379278
-0.024553698
0.058436953
-0.095169209
0.021548562
0.10831931
0.074484333
0.028147805
-0.055277549
0.063604683
0.21194527
0.035773542
0.04251413
-0.021785449
0.11895897
-0.10838304
-0.014665106
0.074863397
0.015554045
0.018817067
-0.05614014
-0.013818887
0.11702873
-0.086570293
-0.069008976
0.044743713
0.017941605
-0.028925775
-0.020396871
-0.020817375
0.10716495
-0.02528698
-0.035379075
-0.048874669
-0.0025975427
-0.071027204
-0.070662804
-0.049677067
0.010906107
-0.026461389
-0.071302451
-0.028198641
-0.10586104
0.10009676
-0.086934932
0.14856714
0.080889612
0.11614545
0.063336693
0.026853876
0.099277921
0.14726858
0.0073739104
0.039065216
-0.048728094
0.1034521
-0.0646272
-0.012143223
0.14439069
0.05182638
0.14268596
-0.0089419857
-0.028608089
0.13670561
-0.10687635
-0.046414934
-0.01960893
-0.048522498
0.007581952
-0.010048004
-0.016801745
-0.03996744
-0.029705284
-0.054412957
-0.095830493
0.01746837
-0.013031306
-0.073157705
0.0011103136
0.028046768
-0.01240031
-0.049110636
0.010455013
-0.098575242
0.10579332
-0.049118418
-0.024007397
-0.01956586
-0.11286116
0.045833938
0.01598327
-0.084916912
-0.067595042
0.0079160528
0.032158051
-0.0012333537
-0.023032375
-0.0082560629
0.016392739
0.014708033
-0.03394356
0.010836268
0.10565487
0.097286038
0.030298147
-0.044366416
-0.00095325289
-0.03508113
-0.12677428
0.037993006
-0.0044000703
-0.06363041
-0.022076383
-0.031335186
-0.025116818
-0.032611683
-0.038792327
0.010894503
-0.0034873409
-0.053053994
-0.022459785
-0.023021361
0.037578002
0.026097793
-0.017126549
-0.0056774681
0.033469118
-0.023455402
0.045290582
-0.024033563
-0.039896425
-0.012641561
7.1830858e-05
0.077175818
-0.050930392
-0.05320191
-0.0089872405
-0.041767765
0.038191907
0.03373545
-0.026542829
-0.0065668118
0.02310808
0.046233591
-0.033552624
-0.054850396
-0.030280298
-0.05323188
0.0082887514
-0.021594413
0.038864933
-0.0054306053
0.0010741601
-0.017987698
-0.029690715
-0.057833828
-0.021655256
-0.038119808
-0.02793321
0.021181831
-0.034764513
-0.045396022
-0.030493857
-0.028859766
0.013513874
-0.050836988
-0.021379959
-0.044771582
-0.11468177
-0.01153542
-0.11838029
0.034776341
-0.028452829
-0.15159369
0.07423453
0.01557125
-0.019259123
0.052813437
-0.11423539
0.043894846
0.04998086
0.004916348
-0.0074013546
-0.025451882
0.047712106
0.012010911
-0.043200172
-0.031138739
-0.013375901
-0.0089592198
-0.083737634
0.017673744
0.011490819
-0.040032722
0.037591618
0.0079668975
-0.057129998
-0.062720746
-0.038707502
0.0045153894
-0.0076508904
-0.029397316
-0.011827433
-0.011610251
0.0070872558
-0.0076149865
-0.093276799
-0.027374761
-0.045973629
-0.16851754
-0.0084836651
-0.014591637
0.054374963
-0.10387258
-0.11696323
-0.01956448
0.010134662
-0.12470706
-0.062506892
-0.12504233
-0.0026486202
-0.069331937
-0.022924287
-0.036168467
-0.029920578
-0.018344415
-0.03632037
-0.056148738
-0.021163383
-0.0092854491
-0.065722324
-0.007608803
-0.0016513051
0.0023988481
-0.041928407
-0.04779556
0.050887059
-0.076103739
-0.043488238
0.0054749241
-0.0096272426
-0.032576546
-0.026400935
-0.05193511
-0.02174875
-0.0059409146
-0.0033504532
-0.077477708
-0.028062105
-0.080961831
-0.0084068645
0.052031454
-0.015918318
0.049477581
0.016481221
-0.027800709
0.04116521
0.082532592
0.012816662
-0.030009339
0.024546081
0.014802285
0.056222603
-0.080120064
-0.084187828
-0.029711112
0.099833824
0.056787368
0.035640478
-0.12714557
0.061986074
-0.03701178
-0.0010146783
-0.011924949
-0.0015374776
0.018675977
-0.036668412
0.028358869
-0.067133836
-0.065407559
0.019797338
-0.045144036
-0.03762592
-0.1239938
-0.078342408
-0.050414976
0.0074190539
-0.0079542454
-0.026951473
-0.038945951
-0.067945577
-0.07951127
0.092292115
0.079884253
0.052411091
-0.0054048714
-0.041852243
-0.087974578
-0.0099228183
0.017605916
-0.0051689581
-0.075514846
0.0052955863
0.032999936
-0.054885957
-0.0035552813
0.0083382269
0.085775234
0.043384783
-0.004905297
-0.10143527
-0.022559341
0.064378984
0.10285294
0.014463096
-0.00043039274
-0.015248165
-0.053160034
-0.012365802
-0.025870565
-0.03922205
0.00040600187
-0.043793201
-0.0080283815
-0.098172948
0.0059172772
-0.020404954
-0.017522169
-0.0041859774
-0.035656959
-0.066815674
-0.10004194
-0.24938618
-0.13637307
-0.14904343
0.037815031
-0.055423133
-0.26163748
-0.16572513
-0.079226181
0.13642406
0.15782924
-0.22084795
0.10184323
0.040809773
-0.17590906
-0.10765974
-0.072353795
0.045491371
-0.050700411
0.15887037
-0.016180158
-0.00688797
-0.03890226
0.037416812
-0.0079142442
0.041107398
-0.080097213
-0.12782983
0.04432793
0.074401706
0.010349817
-0.095115982
-0.027311346
-0.014605402
-0.070201471
-0.04513675
-0.032563914
0.035976037
-0.019123707
0.064714313
-0.3184379
-0.16721588
0.03272742
-0.31558946
-0.02909833
0.015360624
-0.28049234
-0.2220743
-0.084506206
-0.34024447
0.086166032
0.046043102
-0.014860143
-0.024957202
-0.067755535
-0.048978038
-0.26334241
-0.21146025
-0.19511206
-0.12507832
0.028502291
0.03203747
-0.10554351
-0.038811874
0.20302257
-0.0063114297
-0.15630324
-0.16980042
0.19785953
-0.13344209
0.0036985576
-0.10376327
-0.13957274
-0.018341439
0.030421684
0.15697262
-0.053691342
-0.12430694
-0.011528368
-0.12667722
0.0012684613
0.0057166112
0.0074730678
-0.03431768
-0.056699265
0.003323724
0.073532261
0.028459795
0.00050921284
-0.17041436
-0.10341647
0.14651176
0.070490263
-0.070694357
-0.005187205
-0.013866965
0.051665042
-0.10103745
-0.061836328
0.024270464
0.021134302
0.129544
-0.05907616
0.019578373
0.058684286
0.070178732
-0.0065325066
0.031298429
0.033231802
-0.17920481
-0.011359989
0.015774002
0.0021433453
-0.0092447782
0.0024554196
0.023896534
0.048497479
-0.06344223
-0.077592589
-0.042751547
0.016547399
0.012211878
-0.38843998
-0.0091159623
0.11727744
0.10337789
0.15745217
0.016263934
0.082222082
0.10493784
-0.09623123
-0.007277193
0.015725594
0.038268805
0.011387565
0.019362021
0.045024358
-0.13238828
0.018933419
0.086234257
0.19080205
0.033673827
-0.071551673
-0.079208419
0.060221858
-0.011775607
0.044175774
-0.014635462
-0.014758459
0.041292079
-0.18101424
-0.016783474
-0.069706224
-0.036540553
0.035729233
-0.03093411
-0.021701656
-0.11909615
-0.0018311819
0.01319846
0.023969412
-0.012949451
-0.066667788
-0.11154281
0.06554772
-0.20521495
0.038931683
-0.010958098
0.10066441
-0.015272371
-0.16932732
-0.1035922
-0.0073922337
0.090322591
0.13371713
-0.2171839
0.054868516
0.08109916
-0.11542511
-0.040656634
0.021650694
0.063806973
0.056753401
0.077093564
-0.0075714611
-0.010404948
0.04105901
0.011302095
-0.035311308
0.048906922
-0.10813739
-0.15457529
0.048006769
0.025894724
-0.037519019
-0.068535887
-0.030228654
0.0054113283
-0.13621247
-0.050575331
0.0050487802
-0.041356821
0.014482702
-0.04801105
-0.061154101
-0.09544909
0.079383813
0.15632832
0.055821039
0.024915162
0.030514393
-0.018830506
0.141335
0.068455398
-0.0067597376
0.035627026
0.0836799
-0.0065830988
-0.0012150137
-0.013933891
-0.063457526
0.013076594
0.15761958
0.040121462
-0.080206588
-0.14263475
0.083529904
0.02623857
0.0077929874
-0.018888816
0.011378679
-0.032866932
-0.033130269
0.0041019986
-0.048590612
-0.056786407
0.046440821
-0.0035527074
-5.8187234e-06
0.027497403
-0.048516776
-0.049240887
-0.0012884005
0.0013791351
-0.082386531
-0.091080889
-0.042464141
0.068659239
0.19015288
0.2130575
0.0042768838
0.11312652
0.14480144
0.14380695
0.072869666
-0.10555218
-0.090365842
0.16755207
-0.072872311
-0.011774994
0.08722803
0.0526908
0.013321035
0.11103434
0.060307577
-0.12244826
-0.059996024
0.001070105
-0.0089460099
0.044774685
0.019491605
0.030454967
0.0079464577
-0.0084221736
-0.011292718
-0.040362172
-0.087360464
0.063885473
-0.025305487
-0.044648148
-0.048535965
-0.00068313361
-0.01239713
0.009577536
-0.018295558
-0.10982843
-0.109496
-0.043351293
-0.016199671
0.14470574
0.11587606
0.05934472
0.046309136
-0.028311038
0.15270393
0.081282586
-0.095685661
0.037293881
0.020860998
-0.046525035
0.0239738
0.080328502
0.06630829
0.025218066
0.08585798
0.055038944
-0.063838996
-0.055188745
-0.055382457
-0.033856161
-0.0080505684
-0.01257778
0.016611019
-0.063556239
0.018494735
-0.015138846
-0.075075015
-0.1072982
0.029114647
-0.026715279
-0.027640747
-0.011703935
0.011421693
-0.027088981
-0.015682662
-0.006641753
-0.008780404
-0.062133722
-0.077237807
-0.10619628
0.075210951
0.054130718
0.057354473
-0.056788601
-0.11351998
0.17617032
0.074824706
0.047098413
0.057835203
0.0084349858
-0.015475463
0.02232288
0.1784647
0.063551262
0.0642002
0.067485586
0.0592007
-0.0080550229
-0.098838121
-0.074557304
0.011377632
0.00064329588
-0.010188566
-0.0020487267
-0.064398438
0.048007604
-0.030637708
-0.0013442872
-0.037050497
-0.0078493739
-0.0039254208
-0.028137203
0.018681848
0.0070110071
-0.0043424531
-0.01327596
-0.020905815
-0.027372485
-0.085641026
-0.061867233
-0.0091671553
-0.052019581
0.034658983
0.02539246
0.18192649
0.0031816021
0.013417514
-0.059163947
-0.022731323
0.057850692
0.070988469
0.10616108
-0.010809883
0.17564142
0.13073236
0.086358637
0.13140407
0.057753596
-0.12895609
0.049082138
0.023673723
-0.036673646
0.051641539
-0.021969261
-0.040136643
0.011740344
-0.069185629
-0.029918578
-0.033838481
-0.080070771
0.001220318
-0.11337324
-0.12320379
-0.087787315
0.02071099
0.031229099
0.081129305
-0.11044098
-0.14318101
-0.15220222
0.031231731
-0.12434758
0.10336111
0.015989961
0.036668554
-0.045238599
-0.12701006
-0.077883765
-0.032608166
0.01212109
0.057255067
-0.13756937
0.018876307
-0.0054705921
0.012839993
0.081488147
-0.13075817
0.064809121
-0.037758276
-0.018072221
0.035915524
-0.012702156
-0.11225145
-0.039778851
-0.030126052
0.022717392
-0.022459175
-0.11552368
-0.032023538
-0.013513875
-0.063786462
0.033645317
-0.038049873
-0.029252319
-0.15528761
-0.0057805418
-0.011460322
-0.022610364
0.004227892
-0.079046652
-0.11725233
0.14893612
0.025262929
0.075161368
-0.055136129
-0.011876199
-0.035176307
-0.10185183
-0.17534953
-0.035367113
-0.0091534154
0.086420119
-0.031762946
0.042134315
0.074887447
0.021641951
0.031110873
-0.022764547
0.037653081
-0.0056195394
0.018844467
0.023797832
0.001029721
0.01516547
-0.0017854058
-0.034984056
0.0096632112
-0.061995976
-0.1575451
-0.030718982
-0.011789603
-0.029590197
0.052675825
-0.0027407829
-0.017609084
-0.074870281
-0.080583997
-0.12746273
-0.068134755
0.033599887
-0.076383606
-0.049956668
0.23586525
-0.090972744
0.12192579
-0.017174354
-0.038961537
0.324745
0.13724238
-0.063806184
0.061432373
-0.086046636
0.11641175
0.036532987
-0.018982794
0.059038874
0.053278401
-0.007166069
-0.17327625
0.075125583
-0.13492139
-0.080383465
0.13337439
0.034081142
-0.0040850141
0.094160154
-0.084096812
0.038045589
-0.0074850596
0.027863979
-0.10568144
-0.12440464
0.033869781
0.050610647
0.017872823
-0.12215225
-0.05050572
-0.033224713
-0.10101081
-0.11642493
-0.2271201
-0.15669036
0.015481372
0.32673708
0.14049393
-0.02441957
0.091226079
-0.26597291
0.31662288
0.41482556
0.081579104
0.040174469
0.01794998
0.28256401
0.1926467
0.15157717
0.07892178
0.22007021
0.2656478
-0.019074287
0.10240752
-0.04340288
-0.15604176
0.1238474
0.079495706
-0.10274359
-0.003755369
-0.15987131
0.027694225
0.021862183
0.0067455415
0.036724165
-0.12051929
-0.17319399
0.00066879659
-0.062658533
-0.12898247
-0.06396617
0.028708329
-0.065301381
0.0005515368
-0.084462918
-0.14222425
0.0018945567
0.51502156
-0.12460298
-0.29237625
-0.41458467
0.048698317
0.056803964
0.32299599
-0.0061907531
-0.021777334
0.043661047
0.10156579
-0.1250585
0.063570768
0.15216392
-0.035323918
-0.22836968
-0.25047845
0.094377771
-0.046848413
-0.12027424
0.066264369
0.064793497
-0.098257713
-0.15048403
-0.072117083
0.034784321
-0.055152293
-0.17866561
0.0967227
0.024781393
0.066051371
-0.093817718
0.00094008504
0.065687761
-0.24007936
-0.24687789
-0.15424539
0.06341403
0.015771214
-0.10680886
0.11907568
0.29926595
0.18779933
-0.13110633
-0.56889474
0.33861411
0.29978576
0.26563218
-0.09672036
0.071482606
0.16520704
0.17319688
0.13682501
0.1255473
0.044760097
-0.41624779
-0.19733466
-0.10540647
0.10272833
-0.074312977
0.017931052
-0.019873744
-0.060190272
-0.14498773
-0.2867927
-0.18867968
-0.025712287
-0.10744943
-0.23614655
0.034643557
-0.051722463
0.033016086
-0.038049519
0.04050171
0.0028482254
0.17894281
-0.19879988
-0.14827913
-0.090948321
-0.029705266
-0.093045674
0.6664573
0.51499182
-0.12519534
0.15887044
-0.083960496
-0.038215701
0.28008151
0.14978145
-0.23251061
-0.055841077
0.15688881
0.10631878
0.21202737
0.14804304
-0.050848339
0.076933816
0.30278471
0.30120283
-0.35794285
-0.46654943
0.23471791
0.19488835
-0.26191077
0.074765861
-0.11891201
-0.26301152
0.16138613
-0.25670645
0.023354854
0.16388236
0.097186983
0.12188798
-0.14528054
0.091888867
-0.068651684
-0.060361497
-0.34995431
-0.096334986
-0.1538509
0.036820579
0.17428212
-0.009968075
-0.056427117
0.18015479
-0.27640924
-0.36834154
0.46196738
-0.24399339
-0.23253995
-0.33608717
0.1067166
0.051952057
0.064217113
-0.041090429
0.089431897
0.0072277314
0.24172525
-0.066613756
0.065423988
0.031231632
0.09067975
-0.070943594
-0.10562681
-0.10310207
-0.17880386
-0.13097616
-0.095239542
-0.095228918
-0.25958398
-0.18324876
-0.023576275
0.11608351
0.0539806
-0.23154733
0.075355567
-0.071451806
0.12230569
-0.21097949
-0.033365805
-0.054034762
-0.12005132
0.048863199
0.71720803
-0.36733326
-0.080577418
0.35228571
0.24886408
-0.083502412
0.035262659
-0.13252889
-0.0097842831
0.11224102
-0.042223781
-0.11324693
0.24111031
0.039999522
0.15375125
0.59010005
0.19284946
0.18321589
-0.0618379
-0.16808124
-0.22318918
-0.043149047
-0.15953949
-0.064888559
0.025543191
-0.072145209
-0.16698994
-0.14091557
0.12438723
-0.058723602
-0.075993657
-0.072430231
-0.097712927
-0.0024021897
-0.084222019
0.16120489
0.19977143
0.11675773
-0.1702908
-0.16304569
-0.043388575
-0.0019923768
-0.014517997
-0.13699999
-0.038057566
-0.11808743
0.16902724
-0.3067767
-0.17487514
0.064969324
0.14730859
0.030528713
-0.018950542
-0.14988475
-0.019299867
0.056245919
0.2452859
-0.15055519
-0.0071822093
0.14460962
-0.046359174
0.14597155
0.0043873764
0.035478439
-0.045046233
0.022571223
-0.09428408
-0.12445261
-0.085930243
0.097084068
0.0029023821
-0.059017118
-0.051071174
-0.11319357
-0.10047065
0.010412679
-0.13465255
-0.065175697
-0.010681222
0.026244704
0.023988187
-0.022619069
-0.020855421
-0.1561617
-0.058255486
-0.34501475
-0.034677852
0.23140003
-0.27335256
-0.32739973
0.19826359
0.037680309
0.072277784
-0.027199524
-0.28054944
-0.007360619
-0.027506318
0.02015839
-0.115869
-0.10682439
0.052444469
-0.049108889
0.24001223
-0.3433688
0.16330236
0.059692189
0.27389348
-0.19227239
-0.07265836
0.020526974
-0.046381462
-0.05149946
0.0065676807
-0.046391658
-0.017672453
-0.074512899
-0.068335429
0.048527848
-0.12321522
-0.070585042
-0.056614574
-0.060109816
-0.019007575
-0.039350349
-0.22286825
-0.20024592
0.0022577564
0.25469467
-0.0077132704
-0.051923595
0.060657308
0.10487936
-0.081655234
0.12330236
-0.11300205
0.095592529
0.036145873
0.10368196
0.30151954
0.17033288
0.16778891
0.083191738
-0.12959458
0.027012095
-0.085285269
-0.10259097
-0.010789094
0.068403304
-0.079192325
0.046353143
-0.018819964
-0.046975486
0.010341862
-0.052053604
-0.14108731
0.010939565
-0.022095529
-0.096307866
0.012792862
0.032904558
-0.021630907
-0.02691929
-0.14566606
-0.067525759
-0.047482237
-0.084767371
0.065729305
-0.14992489
0.1245186
0.093145594
-0.024894463
-0.016512878
0.0268654
0.068917327
0.10418085
0.036251597
-0.023860298
-0.070403054
0.05780527
0.20971656
0.05999139
-0.059414007
0.089360841
0.0002384058
0.023815354
-0.055171963
-0.079621233
0.033948313
-0.0083893891
-0.094679654
-0.0042937393
-0.037802175
0.030354479
-0.085918598
-0.057339992
-0.065077476
-0.067006774
-0.070878305
-0.087645605
-0.0013996534
0.044278268
0.04031904
-0.037544347
-0.059223544
-0.013711697
-0.098455422
-0.078807339
-0.035424568
-0.11156612
0.029675623
0.077991001
-0.23410276
-0.085638806
0.022268023
0.086472414
-0.026783431
-0.013001044
-0.25153005
0.032798197
-0.072828695
0.19256224
-0.0049973764
-0.04061231
0.036880601
0.22895974
0.16919604
0.013165472
-0.07340084
-0.060553573
-0.05168524
-0.17289023
-0.074672431
-0.06292063
-0.060334619
-0.030462112
0.024427956
0.042111743
-0.16384079
0.025238683
-0.06261076
0.031410865
-0.076285556
-0.021967256
-0.014682338
0.031942226
-0.027290866
0.030843392
-0.011204468
0.052138645
0.03735606
0.019315619
0.087457471
0.00807238
0.035664003
0.042683307
0.018201964
0.026762104
0.015885819
0.025874393
0.0089532351
0.022196453
0.049501315
0.01285638
0.024462117
0.027812082
0.021416711
0.047450811
0.0056880717
-0.039739281
-0.01273515
-0.029375302
0.018133678
0.0080323555
-0.019368893
0.014840824
0.026561638
-0.024639498
-0.012087861
-0.036209062
-0.024159715
-0.015183684
-0.001994594
-0.035847288
0.0037858177
-0.019467976
0.001331259
-0.046292875
0.018840432
-0.014036246
0.035347193
0.035993423
0.013825417
0.049632233
-0.0091478769
-0.0027597356
0.028413609
0.02977029
0.052308019
0.015822256
0.019571979
0.015746051
0.03561683
0.032994684
0.012833311
0.034513146
0.034016982
0.0166067
0.002630179
0.013328971
-0.01473501
-0.016198475
-0.021762328
0.022166096
-0.0094534783
-0.034921434
-0.029186156
-0.01974323
-0.030719606
0.00052486331
-0.027168138
0.015339997
-0.0039564427
-0.0029512991
-0.028359234
-0.0018365132
-0.0011778666
0.0070747831
-0.039131477
0.0035854704
-0.019755838
0.034527443
-0.0090745594
0.027674342
0.081655778
0.010142478
0.026395347
0.020864265
0.034323692
0.040093973
0.0018997238
-0.0044511887
-0.0013414688
0.034416117
0.063420862
0.033024393
0.016595304
0.028942443
0.049908899
0.040785789
-0.043750614
-0.023829367
0.0065143215
-0.00026532545
0.014289367
-0.035817862
-0.0214031
-0.01832621
0.0087455036
-0.0060604988
-0.0017657528
-0.0016149628
-0.030037306
0.019683653
-0.023575779
-0.040806394
-0.02616547
0.017811477
-0.026993383
0.010936641
0.015617799
0.0006499436
0.056287237
0.044958144
0.038542371
0.083947018
0.027405009
0.02333154
0.014515074
0.034737546
0.02718444
0.014037978
0.045280091
0.0098647438
0.063840218
0.043945715
0.0069862087
0.0027691869
0.021991799
0.044593461
0.043718312
0.018028507
-0.0075961011
-0.035547089
0.013429827
0.022621641
-0.037522599
-0.037000589
0.010903361
-0.022889072
-0.031032529
-0.018134993
-0.012330832
-0.025747158
-0.017405059
-0.00064475782
-0.025789166
-0.035572819
-0.032028507
-0.029521823
-0.0015017323
0.01763414
0.01221211
0.033954207
0.039649505
0.013297028
0.041282967
-0.0075674728
0.036619049
0.022471914
0.057347536
0.039197899
0.0095375171
0.02613904
0.041538645
0.02082118
0.03361956
0.038792919
0.007955933
0.034975372
0.010525426
0.020810923
-0.001672052
0.0047509591
0.0051132767
-0.043445673
-0.0031726963
0.016753675
-0.0438185
-0.0056713321
-0.017322302
0.0098111052
-0.044444501
-0.00025636968
-0.002992108
0.018030925
-0.020315185
0.0057012592
0.015760379
-0.03162368
-0.035676658
0.0082439166
0.043502688
-0.0021242665
0.028482426
0.030985158
0.035043359
0.072447658
0.032279171
-0.0084007988
-0.0076715639
0.046515644
0.036295768
0.051298175
0.031286746
0.03101919
0.053364493
0.069314569
0.023539666
-0.013200793
0.043738894
0.045202427
-0.0094221933
-0.009263413
-0.016062371
-0.010460408
-0.018636188
0.010315787
-0.020895557
-0.014735742
0.00027462398
-0.015998671
-0.013566641
-0.012162872
0.0033436196
0.012510422
-0.017665414
-0.01256931
-0.004866071
-0.046008639
-0.012051982
0.0059904382
-0.0010682323
0.059085287
-0.00180582
0.005155256
0.016810482
0.00030441929
0.045873195
-0.0067102425
0.00018526947
0.041448504
0.0042853784
0.027955612
0.026048895
0.010836877
-0.0082823914
0.082650729
0.010641723
0.014438518
0.0050599771
0.047898985
0.058771919
0.042501077
0.0067411149
-0.026821159
-0.004659099
-0.036184907
-0.034443911
-0.018832641
-0.034749705
-0.021563277
-0.026627582
-0.044647649
-0.010210537
-0.027005941
-0.01762948
-0.016476173
-0.033464052
-0.013169971
-0.013887777
-0.019531971
-0.020851448
-0.0089691188
0.2083564
0.051707767
-0.041588333
-0.032247759
0.0051210099
0.068000942
-0.023337241
-0.010739322
0.024486465
-0.0066276267
0.046198972
0.028267359
0.035966627
0.038852632
0.081300095
0.084357798
0.051082343
0.05616428
0.069776185
0.064625867
0.086578712
-0.025384439
0.013938121
-0.0027463334
0.010848142
-0.014482921
-0.0076407124
-0.00022095229
-0.066224031
0.025672238
-0.040134218
-0.016058961
-0.0034768509
0.015745375
-0.047233153
-0.052340113
-0.034418728
0.0037017234
-0.03230156
-0.010467331
-0.046639588
0.0016853913
0.0051694158
0.051443156
0.027129367
0.031638548
0.085844718
0.0041192621
0.026129862
0.023782466
0.01248499
0.038564473
0.04429755
0.029763194
0.022103693
0.025401635
0.011488986
-0.0018885626
0.0097805634
0.071197599
0.039305009
0.056358323
-0.041886013
-0.04364723
-0.025600208
-0.035344187
-0.024781747
-0.046541881
-0.040500101
-0.01925944
-0.011690119
-0.026667194
0.0077268542
-0.0046707904
-0.009894453
-0.018328916
-0.016242208
-0.030924639
-0.0078671966
-0.0090954145
-0.017959736
0.0039106002
0.18733455
-0.024234332
0.039357323
0.0029160492
-0.0012508916
0.035819948
0.027182229
-0.010676062
0.06451647
0.026201725
-0.010316597
0.058709607
0.033142414
0.057760794
0.04303528
0.024640221
0.035246324
0.024278356
0.032346085
0.020141875
-0.012179115
-0.029967457
-0.040646121
-0.026869258
-0.009841267
-0.035017163
-0.0027297775
-0.019046774
-0.0047225831
-0.02064693
-0.012767269
0.0076900283
-0.024730364
-0.013748889
-0.028118692
-0.0014680864
-0.0092727272
-0.002040003
-0.038078584
-0.015284817
-0.042084627
0.033986092
-0.012990779
0.033244874
0.037404571
0.031085303
0.042050645
0.016036138
0.0076676654
0.03648768
0.042710267
0.029508106
0.026569085
0.05032118
0.065142989
0.030035252
0.064165302
0.029073035
0.022336593
0.053898159
0.05732527
0.011593131
-0.0095960554
-0.036253542
-0.011462893
-0.013199307
-0.019748017
0.0070790029
-0.042591289
-0.019424779
-0.018820418
-0.016853863
-0.024571413
-0.011513066
-0.028501036
-0.032857273
-0.007618614
-0.021092841
-0.0068053561
-0.035654563
-0.0045946776
-0.032107741
0.027111428
-0.018887976
-0.0097096274
-0.0012959547
-0.016367747
0.082020327
-0.025794333
0.02446522
0.027201606
0.038232341
0.011177666
0.056471139
0.0025323019
0.038856085
0.044619083
0.025013784
0.015170961
0.022713259
0.064564221
0.04669898
0.011381023
-0.024410706
-0.022829942
-0.027830172
-0.038978815
0.031764433
-0.010537402
-0.016369577
-0.029174631
-0.025904413
0.011085331
-0.0083053969
-0.028728046
-0.034779157
-0.038075633
-0.011133868
0.016615363
-0.043327838
-0.010251348
-0.015361804
0.0066113067
0.016049301
0.0033520118
0.01848967
-0.0067596738
0.05227907
0.061374065
0.043199025
0.043547787
0.01151544
0.029915554
0.033587452
0.013299651
0.057802204
0.0024885267
0.033918861
0.056137316
0.039091431
0.0020783695
0.065129779
0.056092869
-0.015351941
-0.015385717
-0.029741367
-0.027213359
-0.018500317
0.0039687199
-0.026377296
-0.012055987
-0.043575443
0.0017837734
-0.021548433
-0.013192215
0.017619992
0.0025685451
0.0038598303
0.0061938623
-0.029947028
-0.021466991
-0.012867278
-0.010349853
-0.0085696522
-0.014114232
0.042235039
0.042259034
0.0037899362
0.017869856
0.058504958
0.0020988442
0.036710955
0.016986985
0.055451814
0.052576363
0.049751338
0.0080041308
0.0088992575
0.023689294
0.050111245
0.0081042647
0.024532748
0.071721986
0.052399386
-0.0017122206
0.00026376959
0.012823919
0.00067122438
-0.026503043
-0.00168439
0.016969005
-0.0094416263
0.012242575
-0.010963541
-0.019963613
-0.032697279
-0.026894849
-0.03222404
-0.0047887471
-0.0070819864
-0.0081995185
-0.0084555009
-0.012071111
0.019889576
-0.016954748
-0.025486108
0.033259373
0.035729516
0.0026922405
-0.01886123
0.061109148
0.025346493
0.034307312
0.025921872
0.02622042
0.058998059
0.01116364
0.015969072
0.042739142
0.035656974
-0.0039340113
0.014852684
0.034329839
0.019679174
0.044146225
0.024980074
-0.027621264
0.01665099
-0.011276701
-0.0081613949
0.0050240564
0.016256226
-0.029195627
0.018579794
0.020965047
0.0087454515
-0.027808331
-0.0026112774
0.0034587635
-0.00012478537
0.0022301488
-0.03691354
-0.030170944
-0.0078785634
-0.0020875304
-0.00094657997
-0.0057711597
-0.098907955
-0.010958141
-0.013983501
-0.011794546
0.073587775
-0.09120474
-0.13914117
0.11508819
-0.03148587
-0.10504223
-0.068135098
-0.04225124
0.11065007
0.062347721
0.23053055
-0.033794932
0.035133738
0.060338989
0.036725126
0.0066147856
0.016156429
0.036652666
0.038464889
-0.042322803
0.054610185
-0.027202981
-0.0021113516
0.021970218
0.098848194
0.11217749
-0.027922682
0.011253111
-0.074697927
-0.0026809678
-0.078695871
-0.038660198
0.0014740229
-0.069051005
-0.073872499
0.027603894
-0.56663048
-0.083557136
-0.097331658
0.063088268
-0.061659969
0.14280856
0.12399567
-0.18463837
0.076204531
0.064385928
-0.12567236
-0.045320842
-0.13178019
0.20311408
-0.059195783
0.20074405
-0.014747969
-0.06610202
0.018178117
0.026083535
-0.012872175
0.022845306
0.10529311
-0.023787679
-0.04898512
0.090888761
-0.093951941
-0.06614051
0.019402172
0.10705221
0.076392688
-0.0075296871
-0.038157046
-0.0037993463
0.034789167
-0.19227386
-0.076445647
-0.031070616
-0.027959432
-0.024443273
0.077902257
-0.43373358
-0.10666038
-0.057054438
0.08388795
-0.13465868
0.063810416
-0.033054534
-0.070037059
0.11932661
-0.0049324757
0.017018629
-0.11630318
-0.054009702
0.10798406
-0.055623621
0.24452148
0.019476367
0.012111148
0.19306548
0.10583922
-0.15201131
0.064279176
0.051889129
-0.073275082
-0.0881951
0.016640168
-0.094969213
-0.06725134
0.031564679
0.09305916
0.087335736
0.042238414
-0.096976057
0.010136595
0.048016153
-0.060030475
-0.062531926
-0.034068901
-0.029406156
-0.028564749
0.067944199
-0.52585995
-0.11589442
-0.1490888
0.17147082
-0.1094529
0.1935802
0.016980432
-0.26372293
0.15476447
-0.032370668
-0.044211973
-0.12528478
-0.21365035
0.23678917
-0.0011066393
0.21139748
0.055840749
-0.031820171
0.04033386
-0.050945099
0.066978231
0.066906497
0.17143892
-0.058225952
-0.048514597
-0.036044516
0.080726504
0.0082530286
-0.042365637
0.064554028
-0.025572965
-0.0092217512
0.0087250341
0.047705825
-0.016829327
-0.12249837
-0.023654589
-4.5424338e-05
0.026538493
-0.06845057
-0.015509449
-0.55391914
-0.19807142
-0.063961245
0.13815987
-0.21827887
0.29707599
0.0099801989
-0.077435143
0.17898066
0.13513918
0.016893199
-0.21620052
-0.14212844
0.18597554
0.057417933
0.1653395
0.12744792
-0.21670981
0.065871045
0.023193799
-0.079160668
0.05381728
0.19461226
-0.061817933
0.021874193
0.045668956
0.0010139258
-0.037138589
-0.089460693
0.16131848
-0.0056188591
-0.043280337
0.014887039
0.0170647
-0.07293804
-0.041215051
0.045814373
-0.0083401287
-0.033543158
-0.12803486
0.0054154135
-0.64801931
0.058196098
-0.096899584
0.15610233
-0.34050816
0.21863237
0.036118638
0.090255097
0.33010846
-0.013611163
0.038362149
-0.19882348
-0.21530436
0.26721272
0.13779123
0.43021691
-0.014105758
-0.17029627
0.067741096
-0.0053059105
0.042179
0.016833618
0.12275901
0.048805717
0.0051692552
-0.11364785
-0.019124964
0.0082667815
0.078566141
0.25144428
-0.0096739354
-0.04099746
-0.0069009685
0.022783909
0.0064421888
0.102309
-0.024289681
-0.0096966689
-0.010024091
-0.13766754
-0.0056863837
-0.74208641
-0.22536406
0.020006225
0.28329498
-0.057271283
0.29724663
0.094041444
-0.0060731643
0.51271755
0.11858205
0.11393175
-0.38872445
-0.39084256
0.11402295
0.004663452
-0.0073574777
0.092176877
0.030427165
0.31826431
0.12279623
0.0084716361
-0.063244335
0.078917384
0.055040613
0.18036807
-0.22567357
0.013937602
0.10726462
0.075659357
0.24171084
-0.056043819
-0.10730673
-0.15408601
-0.025263192
0.00040332603
0.03635975
0.067064092
-0.0068589165
0.006760546
-0.065534763
-0.072553337
-0.69873095
-0.42816254
-1.6853656
-0.15388192
-1.0110604
1.1912994
0.33090344
-0.032968361
-1.3964348
-0.23589407
-0.25360918
-0.40283799
-1.649475
0.2189575
-0.31274524
-1.0450867
-0.18096337
-0.61217391
-0.1937474
-0.58081865
-0.31948209
-0.00398297
-0.32306114
0.47891587
0.38925233
0.82300878
0.36075288
0.33950853
-0.15380287
0.18325506
-0.15805337
-0.25249368
-0.35539702
-0.17671444
-0.2337174
-0.50815701
0.071010642
-0.07838916
-0.28504398
-0.47965509
-0.14102486
-0.022935661
-0.10575417
0.08945445
-0.099858902
-0.25961813
0.2602537
0.029769408
-0.3071278
0.20188087
0.067839749
0.015602892
-0.23654044
-0.28842613
0.27745083
0.10699353
0.3201724
0.41079694
0.23312257
0.14037126
-0.0069943937
-0.18155625
-0.025409961
0.051104385
-0.024090623
0.082806922
-0.20782465
0.057476155
-0.049588244
0.11564721
0.26325202
0.037189044
-0.035911098
-0.023563983
0.040041342
0.022498112
-0.13665587
0.0092633348
0.0004139622
0.023330847
-0.071226433
-0.034389082
-0.72211611
-0.00981443
-0.12590791
0.24326436
-0.13985041
0.15023011
-0.22395726
-0.33932966
0.17675743
-0.075955637
-0.088430882
-0.1137777
-0.30590099
0.22444843
0.062815361
0.52801895
0.048582092
0.021898186
0.11516343
0.031049836
-0.051740404
-0.010572234
0.1786087
-0.015046097
-0.0044547981
-0.09106224
-0.017911427
-0.016267052
-0.032375213
0.18664932
-0.0070419167
-0.050718226
-0.042822804
-0.0054648332
-0.08883623
0.037614871
-0.059107192
0.019745952
0.092287473
-0.15778524
-0.023329837
-0.47603923
0.061926015
0.12442814
0.10539148
-0.088826306
0.24439183
-0.17245294
-0.044099145
0.11172899
0.026983844
-0.12474262
-0.072361268
-0.46943179
0.22103637
-0.16721214
0.32460797
0.013847819
0.04033123
0.21458346
0.092188485
-0.24563606
-0.1550484
0.19779107
0.020118957
0.016857466
-0.11065394
-0.018299084
-0.023280513
-0.0080285203
0.14330082
-0.13272452
0.0076636691
0.019031439
0.040560603
-0.045778226
0.089380093
-0.081241526
0.040742751
-0.068132006
-0.093004957
-0.072199993
-0.4487249
-0.050014008
-0.09177611
-0.040903259
0.10999207
0.16378091
-0.10023762
-0.099645793
0.18089674
0.061891172
-0.076768421
-0.016839257
-0.28508943
0.24609885
-0.13579811
0.30064839
-0.061621308
0.10120485
0.15252139
0.080183029
-0.017000871
0.1086431
-0.00036053234
0.014032928
-0.089621708
-0.084006637
0.077098206
-0.075505242
0.11471159
0.23381771
-0.052096609
-0.11796013
-0.10588181
0.0044501312
-0.042657327
0.04671856
-0.011546094
-0.073756188
-0.073413856
-0.068118446
-0.063974127
-0.38026634
-0.039055951
-0.10834194
0.089513466
-0.026862131
0.11638478
0.032532185
-0.15062818
0.16727981
0.017101511
0.01972357
0.0017391583
-0.12620498
0.15683386
-0.055642828
0.23554461
0.048454273
-0.065438554
0.10144291
0.13529851
-0.05140613
0.0074683418
0.074559592
-0.0067125508
0.02195989
0.020502966
-0.042608026
-0.044600427
0.027028937
0.1534653
0.029792577
-0.090671062
-0.069737561
-0.00028996693
-0.091017298
-0.0578789
-0.075602032
-0.026289653
-0.0093813576
-0.090760946
-0.016768767
-0.37384799
0.032848772
0.051840868
0.20037982
-0.04299232
0.097658396
-0.013667116
-0.11422603
0.19623913
0.078196079
-0.086607523
-0.022239363
-0.094886802
0.081098251
-0.054677468
0.14477503
-0.046814501
-0.040224619
0.057790764
0.13983725
0.016996963
0.00049361278
-0.0094119422
0.032385029
0.018096251
0.092558838
-0.071332797
-0.068971857
-0.00060529046
-0.024002759
0.029364074
-0.054883346
-0.10259192
-0.013558476
0.044978842
-0.085517555
-0.021981802
0.027859235
0.011263411
-0.041599173
0.026065594
-0.43008953
0.042403895
0.055234287
0.16206254
-0.001252575
0.1321649
-0.11126447
0.0015062398
0.18027346
0.04536112
-0.04117788
-0.12602143
0.0052518984
0.17627312
-0.078699209
0.12999129
-0.17377643
-0.015151431
0.11437117
0.17783681
-0.10532768
0.072726436
0.0063297632
0.013394383
-0.029037355
-0.080403388
-0.017175352
-0.0089812772
0.049311634
0.011908441
-0.017619705
-0.055225182
-0.040644202
-0.012462728
-0.045995742
-0.0016419645
0.015369399
0.092322804
-0.01682128
-0.014988593
0.010168114
-0.62151128
0.010750113
0.0045151305
0.045482386
0.0038578464
0.034242705
0.03228502
0.031957515
0.0023715547
-0.012139008
0.0081890775
0.022151474
0.037277259
0.019204505
0.018292068
0.057387277
-0.0048137368
0.039074626
0.022126948
0.0019577432
0.044774987
-0.0030985328
-0.01947451
0.0026379265
-0.040043458
-0.022118399
0.0050904187
-0.0071784393
-0.038480364
-0.040492795
-0.032573201
0.0082841525
-0.018919244
-0.002815017
0.0032599841
-0.022729311
-0.016374648
-0.020644659
-0.010412463
-0.012895849
-0.0086379284
-0.026850829
0.025854057
0.0034746798
0.024895869
-0.00052072539
0.0016664829
0.041870594
0.02417898
0.040593196
0.038187433
0.026671596
-0.0080933757
-0.0038914282
0.017486248
-0.0008018064
0.0099079022
0.03002004
0.055601276
0.043066677
0.039220233
-0.010323392
-0.039294675
-0.0276777
-0.0010752596
0.010485959
0.017944762
0.023387088
-0.031525157
-0.036694322
-0.019565942
0.00026134687
-0.015793268
0.012654701
-0.030584354
0.01892069
0.018361485
-0.028909698
0.0070938268
0.014454016
-0.014817711
-0.018567031
-0.024290496
0.017650032
0.021056596
0.046512026
0.048671536
0.042741582
0.015543951
0.02113954
0.023893049
0.012747571
0.015779169
0.027160324
0.032827392
-0.0062056505
0.016171385
0.03726352
-0.015642775
0.024773134
0.037862666
0.023629889
-0.0012642822
-0.034138154
-0.019576048
-0.0098026032
-0.036666855
-0.0090688122
-0.0045570442
0.00445663
-0.03721191
-0.034929007
-0.049460072
-0.010971859
-0.0033062852
0.013577182
-0.03912539
-0.019134706
0.0061985729
-0.0046754945
0.014889943
-0.030168818
-0.049081132
-0.031943552
0.023955753
0.019442026
0.031978235
0.017417122
0.013166056
0.026977649
0.029925287
0.037743445
-0.0027376043
0.0008096213
0.037618622
0.011221798
0.0094798617
0.056852706
0.060407881
-0.0317825
0.022840526
0.016620858
0.024621477
0.034466561
-0.034730028
0.013406817
-0.0092525771
-0.0093228454
-0.029543785
-0.016419969
-0.030447913
-0.0071711643
3.1994052e-05
-0.024414429
-0.046522338
-0.027398223
-0.035369191
0.013959602
-0.030722283
-0.036264762
-0.022622775
0.03688636
-0.015193745
-0.0096343597
-0.052960645
0.034238711
-0.02818957
0.024807053
0.045044448
0.062317122
0.02042285
0.0058588148
0.062182397
0.029989736
0.004473024
0.022594469
0.018980373
0.01260947
-0.0044885101
0.047797866
0.022651711
0.0031249772
0.05493613
0.018757928
0.029114254
-0.0060366094
-0.010444933
-0.00028266892
-0.0097057037
0.000439339
0.012748145
0.016920989
-7.7695964e-05
0.0067837271
-0.016203335
-0.003041544
0.0061062928
-0.0093601998
-0.0093554314
-0.010425679
-0.022586975
-0.036668032
0.022510035
-0.001572197
-0.039935015
0.0025924537
0.039062332
0.018862369
0.022818204
0.050904516
0.050613873
-0.0087388791
-0.018585427
0.034612332
0.026053788
0.027818142
-0.0079315398
-0.012775305
-0.023390874
0.042480409
0.00089563197
0.017043591
0.013697182
0.053883817
0.023097543
0.04229103
-0.037464786
-0.0088582877
-0.011981778
0.030162886
0.022302499
0.015481968
0.016266691
0.016444288
-0.01434527
-0.04616693
0.00036069821
-0.030334841
0.020418914
-0.01472408
-0.026629869
-0.0050155814
0.0046918304
-0.0097682951
0.014301996
-0.0068239877
-0.034008764
-0.022096125
0.056919955
0.0086512743
0.036405802
0.071301751
0.040067315
-0.010826847
0.036010671
0.022185218
0.066918693
0.014741609
0.052658204
0.01229014
0.045712546
0.056285322
-0.035783518
0.05462826
0.045358039
0.021636784
0.065020844
-0.030822145
0.033627685
0.027774183
0.011268121
0.021781769
0.002133874
-0.029015543
-0.022879628
-0.0096895406
0.01961142
-0.028925393
0.012600288
0.021779845
-0.015542341
-0.035470139
0.02315438
-0.007536673
-0.0063165217
0.0032563962
0.0037965605
-0.27824387
-0.034852792
0.029396035
-0.0028362733
-0.00046519306
0.013745524
0.0050948691
-0.041808266
0.016319526
-0.056662045
0.039850097
0.080853291
0.017335637
0.029933453
0.013215009
0.031333223
-0.075198822
-0.0065642414
0.029007442
0.009919269
0.05079782
-0.027454276
-0.074288607
-0.010707526
-0.052183617
-0.0003084483
-0.056652185
-0.098641388
0.062790245
-0.026661208
0.034053035
-0.034476373
-0.098036245
-0.042180203
0.063721649
0.010362197
-0.0059108883
-0.0046328367
0.039492618
0.0097736949
0.028188929
0.025337577
0.020251384
0.0073548085
0.021955835
0.050686073
0.031514298
-0.020201501
0.0027472212
0.024544945
0.021912871
-0.0011621729
0.043449543
0.041853268
-0.0074310107
0.0065062582
0.098688945
0.026236696
0.042963281
0.033372946
0.056473523
-0.00019216372
-0.0040920381
-0.020048294
0.0089240205
0.026180385
0.021357272
-0.0054558488
-0.032645587
-0.0070172045
-0.028873518
0.0015803358
-0.020265531
0.0093119964
-0.02753642
0.0037040052
0.027599778
-0.023251317
0.012810335
0.029347554
-0.016924016
-0.026678544
-0.26293153
0.038089983
0.048316598
0.042327411
0.075607792
0.068701446
6.8576199e-05
-0.0012548877
0.011138639
-0.011496728
0.0283492
0.032101952
-0.0021319371
-0.0038832068
0.0056519462
0.069319077
0.044351876
0.02984984
0.065376833
-0.024229806
0.0094841244
-0.031349566
0.0083935335
0.00053050794
0.018055506
0.033985727
0.00052209065
-0.01447407
0.014729409
1.4497829e-05
-0.01638524
-0.0075333873
0.0014269174
-0.013724695
-0.012170228
0.023835773
-0.014506937
0.021293979
0.017739514
-0.019881351
-0.042397629
-0.058959384
0.0028649834
0.010182078
0.047559157
0.048264649
0.024835562
0.05112803
0.064019307
-0.0075674606
0.046806607
0.0010436166
0.045929916
0.02112248
-0.0043468284
0.025632223
0.028585386
-0.020104526
0.0046533849
0.040730167
0.042302802
0.034693271
-0.043106727
0.0069933692
-0.019166121
0.015302074
0.02248979
0.022623677
0.026253615
-0.02948644
-0.02801862
0.0031919924
-0.044925652
-0.017861437
-0.035397008
0.014555572
-0.00021192114
-0.014629095
0.001774575
-0.0044115637
0.029245641
-0.0088769058
-0.024973167
0.021915512
0.004300592
0.0049090092
0.051560044
0.055668116
0.0041994187
0.039654475
0.016029989
-0.0088187763
0.031577807
0.024661781
0.0069289156
-0.020143311
-0.001816499
0.022194233
0.014315551
0.037231725
0.036236126
0.051158201
0.025763005
-0.065211102
-0.0053558946
0.010958767
-0.013836944
0.019607808
-0.010079482
-0.023161646
-0.04612302
-0.028940508
0.0067468709
0.0017217572
0.018220447
-0.032229125
-0.036174506
-0.0061751124
-0.0060897153
-0.031861294
-0.012318841
0.025164969
-0.017464038
-0.0080315014
-0.0057533919
0.01863803
0.06247922
0.027125722
0.019546079
0.0085022291
-0.013529741
0.059617579
0.02443165
0.0034209322
0.04439491
0.029220449
0.019996144
-0.00062522572
0.060290791
-0.025528723
-0.019046206
0.052865963
0.0048365472
0.055108786
-0.038707808
-0.027715407
0.0086135594
-0.023178911
0.012418777
-0.0047398433
-0.020951211
0.024054695
-0.0097295968
0.007557326
-0.00028162354
0.0032247072
-0.0024131797
0.0065224459
-0.015349663
0.012776317
-0.012195922
0.015040561
-0.004136492
-0.024726115
-0.0067945537
-0.0039343568
0.0026991607
0.05141516
0.036372401
0.05759123
0.031039797
0.014155973
0.043496091
0.049871609
0.012665491
0.025711372
0.0020755474
0.038231317
0.035381395
0.064735919
0.013046271
0.0063840873
0.064009704
0.051172525
0.060495246
-0.031936225
0.0077554411
-0.0018886849
-0.015399291
-0.020466454
-0.001695849
0.004458623
0.017955359
-0.037981253
0.016135866
-0.0061370442
-0.015346913
-0.03770661
-0.028376874
0.019741125
-0.037239112
0.024347628
-0.020307172
-0.025672808
0.0060358113
-0.0081670675
0.022697397
0.038165327
0.026514908
0.025455985
0.041439209
0.038839929
-0.0013952815
0.033082418
0.047925998
0.024222145
0.049339686
0.030739171
0.029779771
0.0085700005
0.079357333
-0.0010262654
0.054038037
0.070366718
0.047880892
0.044875875
-0.018244825
-0.034398973
0.0043693455
0.020089157
0.029678777
0.023255503
0.010251366
-0.031043287
-0.023446061
0.011080815
-0.0047718897
0.014986726
-0.0012204692
-0.030487491
-0.011797377
-0.030566562
-0.034432042
0.018889777
0.0061502224
-0.034887604
-0.045723271
-0.011690076
0.04717451
0.0045836032
0.018589344
0.072236165
0.040032957
0.020823605
0.049161073
0.022945018
0.006259067
-0.0045998469
0.014884356
0.027330961
0.013184564
0.039129201
0.014922152
-0.025794484
0.071365818
0.031178394
0.010174861
-0.020971017
-0.012248106
-0.021784164
-0.0080382256
0.011096573
-0.0067193173
-0.0042139459
