-0.080604069
0.14724581
-0.31198576
-0.1044485
-0.16445737
-0.030093718
-0.17124005
-0.16004921
0.0073617264
-0.2289509
-0.36021969
-0.1095309
0.026429191
-0.27215987
0.041611455
-0.30012971
-0.51755774
-0.039209198
0.46569228
-0.46130931
0.05050673
-0.15747814
-0.29825941
-0.012833386
1.0802919
0.80202883
-2.4398818
-0.026233723
-4.9714704
0.77459472
3.4711781
0.01032222
-1.6671255
-0.36356023
2.0614405
-0.00859938
-0.096298501
-0.45669281
0.39907572
0.021654198
0.42697996
-0.064098865
-0.8243624
-0.036114704
-0.073422097
-0.2980971
-0.15054008
-0.13097407
-0.23056072
0.060060278
-0.41261068
-0.12565306
-0.23046176
-0.067262813
-0.24335311
-0.012921412
0.0074025718
-0.25221398
-0.046789687
-0.25760174
-0.34449703
-0.27554944
-0.32303354
0.032140069
0.25430018
-0.042526942
0.15367761
0.15991196
-0.090087652
-0.1598189
-0.074747033
0.0049806451
-0.14429915
-0.29885456
-0.37322932
-0.35187012
-0.42138875
-0.44738835
-0.5318889
-0.39200246
-0.82272726
-0.56618226
-0.71767217
-0.88051146
-1.1585579
-0.92463493
-1.2309895
-0.9971503
0.88383454
-1.1671022
-5.2990875
0.2290591
-1.9569499
-3.7440856
0.54464668
0.0029763505
0.23341264
-0.19658634
-5.6399937
0.18648137
-0.98392111
-0.92627877
-1.2029371
-1.0076833
-0.44596741
-0.4471809
-0.69547963
-0.8134619
-0.303725
-0.20455121
-0.38490379
-0.40915787
-0.0039454009
0.0042424886
-0.14695454
-0.11506614
0.10179007
0.016841467
0.16836149
0.079626866
0.29636389
0.17188674
0.12563731
0.44765681
0.96966666
2.4596195
2.0369134
0.097460598
-0.25185159
0.012188833
-0.46654272
-0.093397953
-0.22468659
-0.057462536
-0.26370251
-0.1121584
0.044308048
-0.3227779
-0.061387885
-0.25943848
-0.32875094
-0.24838233
0.10584605
-0.12328903
-0.27208492
-0.25027812
-0.025670232
-0.22203584
-0.12140132
-0.31553206
-0.11876205
-0.38352358
0.2322824
-1.4258482
-0.5240857
0.55348492
4.6754985
-4.1212549
-3.2096586
0.0067067682
0.74481887
-1.9746456
-0.23801886
0.53988135
-0.14225054
-0.29987779
0.26746884
-0.44910523
0.03282775
-0.17044084
-0.14374472
0.041686222
0.10774557
0.097553678
-0.056867577
-0.17719969
-0.16553143
0.11354202
0.08020404
-0.12619492
0.024545956
-0.025496004
-0.24834114
0.021930022
-0.096546002
0.031484962
-0.21258149
0.099733867
0.44297665
0.32854947
-1.1746317
-0.13921204
0.3006686
0.20801079
0.3533403
0.16769186
0.11525675
0.0096355369
0.017061375
-0.081176609
-0.12764466
-0.095382698
-0.16341111
-0.17854024
-0.42935315
-0.53470069
-0.32557777
-0.46647352
-0.80670255
-0.93480313
-0.74298906
-0.99037409
-1.4987183
-1.9184015
-0.549119
-1.3639441
-2.6271873
-3.0996633
-1.278795
0.5360232
-1.2639201
-1.6001962
-5.1306524
0.0074995821
-2.2301774
-2.8197629
-1.2068861
0.5237577
-1.325026
-0.9890452
-0.72045135
-1.210847
-0.8052066
-0.74490243
-0.59415883
-0.49466053
-0.2530151
-0.38071114
-0.34963799
-0.21232569
-0.092531949
-0.013624188
0.043829139
-0.11269572
0.2953749
0.12253848
0.056157473
0.12661086
0.50049132
0.26215667
0.39363405
0.32629916
2.2519193
2.2509906
2.6271703
0.20648396
-0.050742164
0.007431068
0.048206329
-0.13751459
-0.10709762
-0.026082346
-0.10488249
-0.1106955
-0.15266432
-0.054697506
-0.10720531
-0.16207105
-0.14410074
-0.10088183
-0.073677063
-0.23211433
-0.27458742
-0.30041897
-0.0171526
-0.18241116
-0.15674034
-0.34689751
-0.49002969
0.0038068411
0.42814973
0.50089639
-2.4406161
0.43448943
1.0107312
1.0283378
-3.3675768
0.014643863
0.36339024
0.41668275
-2.3042083
0.40217876
-0.17142364
-0.14321628
-0.51405913
-0.14691588
-0.2054621
-0.19318585
-0.20354879
-0.21341372
-0.2784645
-0.15339148
-0.11803815
-0.15616816
-0.13370295
-0.06841559
-0.24674377
-0.049076807
-0.065236941
-0.11592697
-0.075755462
-0.084636517
-0.1000191
-0.0059071886
-0.022763925
-0.10284077
-0.19379283
0.58969527
0.13469975
-0.096109301
-0.22470699
-0.027797339
0.048242796
-0.024457375
-0.10070885
-0.12962689
-0.15698732
0.013994769
-0.04255043
-0.39593601
0.056031156
-0.047889519
-0.18529074
-0.22958462
-0.2590608
-0.10365648
-0.61702937
0.27736375
-0.49021316
-0.42012486
-0.20559351
-0.95113355
0.18725999
-0.82114065
-0.32785878
-1.9221108
-0.19605918
0.29112861
2.033462
-2.8780408
-2.0774281
0.0063233739
-0.091347128
-2.3297558
0.49470052
0.27531013
-0.091925055
-0.61140984
0.18995251
-0.51689208
-0.12876733
-0.038468059
-0.24708302
-0.0029117768
0.16076435
0.010239176
-0.16969959
0.070902206
0.10952281
0.16615053
-0.065853402
0.19495757
0.01610589
0.14747842
0.02741641
0.18059133
-0.045609143
0.071513675
0.14568873
0.34024602
1.3097152
0.10779361
0.084413595
0.031089995
-0.1322418
0.026277287
-0.063004375
-0.10466161
-0.053122137
-0.19599923
0.0042953533
0.02533588
0.0058945711
-0.092636995
-0.0011990219
0.14363779
0.056752589
0.14314808
-0.25085258
0.15549144
-0.44780859
0.52941692
-0.22778241
0.10202295
-3.4628959
2.2072079
1.1923004
0.048151691
-5.2312183
2.118134
2.4774733
0.39991039
1.7028646
-2.4540825
-1.011814
0.0010397881
-0.6183027
-0.20292163
-0.51993489
0.29032716
-0.05494415
-0.30575621
0.17026155
-0.72375965
-0.094463967
-0.12188633
-0.2194443
-0.35783029
-0.15619457
-0.11708608
-0.23355831
-0.1598334
-0.20955947
-0.16253328
-0.16764906
-0.18031655
-0.12890938
-0.25464365
-0.26300615
-0.11805429
-0.12316318
-0.3249867
-0.04630883
-0.25821063
0.70121092
-0.25036457
-0.53753817
-0.065726086
0.05107611
-0.42552808
0.16059105
0.28649202
0.25427774
-0.64396632
0.43210414
0.10203748
0.4381898
-0.91256887
0.53326601
0.082518473
0.30332416
-1.0529894
0.76860607
-0.012116288
-0.12479103
-0.98291355
0.95906514
-0.067471154
-0.60986483
-0.83196563
1.0577365
-0.12274232
-0.10222293
-0.5027234
-0.45175305
0.19500175
-0.373207
0.62753326
-1.5589674
0.014128564
-0.24903454
-0.44794077
-0.10190713
0.16684642
-0.50329757
-0.34097022
0.48891607
-0.052551299
-0.13676383
-0.11486658
-0.21437062
0.13903457
-0.14918876
-0.053076372
0.014895678
0.0042906362
-0.10396767
0.10516472
-0.12003335
-0.057006434
-0.13500735
-0.0086557372
0.26848865
-0.17647336
0.1428614
0.038034387
-0.020205004
-0.24580649
1.1311147
-1.5407832
0.64768744
-0.20301002
-0.20471618
-0.1648766
-0.12923025
-0.13939549
-0.21699066
-0.18118168
-0.22335009
-0.20570147
-0.16699301
-0.16483
-0.24449381
-0.29007518
-0.27837881
-0.059301384
-0.09009818
-0.27962807
-0.069660008
-0.35141781
-0.029654864
-0.024946231
0.12693197
-0.31295541
0.13939284
0.19180816
0.86839098
-1.2094028
0.9561252
0.25463754
2.1897249
-4.8338861
3.7944522
0.0092979902
0.74356937
-0.045863718
-0.073304772
0.16378897
0.020075925
-0.10294526
-0.1486508
0.16970667
-0.22418138
-0.1371886
-0.080844209
0.010407167
-0.21811087
-0.052423552
-0.12512539
-0.16096205
-0.072539791
-0.02660189
-0.061141305
-0.25115159
-0.1123787
-0.12051012
-0.15273766
-0.059991725
-0.1932414
0.043856416
-0.13395523
-0.12835369
-0.37429607
-0.36271891
-0.094535701
0.022074286
0.061800148
-0.27557364
-0.082433902
-0.53875321
-0.15877932
-0.00080254214
-0.081548832
-0.54151344
0.0090239672
-0.067363665
-0.052216996
-0.5020529
0.52774167
-1.562911
0.60798097
-0.17306024
2.2841437
-4.3438125
1.7242827
-0.041802086
-0.41047472
1.260188
-0.16525328
-0.021610409
-1.0502824
2.4404705
-0.83014607
0.058663424
0.64535242
0.090648942
-0.12487356
0.0066515612
-0.061211932
0.27414918
-0.14013129
0.067964025
0.11555002
-0.4920173
0.19033588
0.087572902
-0.021001188
-0.12783138
0.057136867
-0.042635616
0.029317232
0.014503591
0.020115232
-0.10073623
-0.017273817
0.12744677
-0.024674555
-0.11378533
-0.0088171363
-0.028263977
-0.042596746
-0.039149586
-0.032598555
-0.15438949
-0.098307684
-0.024088146
-0.48687163
-0.60682154
-0.47515479
0.13118397
0.19345839
0.12938288
0.25826868
0.026336879
0.15411362
0.27989179
0.24290216
-0.015856262
0.36568296
-0.027701071
0.22942857
0.025695341
0.62351382
-0.57519215
0.15141673
0.085692577
-1.0498209
1.5402966
-0.45757183
-0.066721655
-0.5798173
0.93473613
-0.34153342
-0.044760808
0.5975278
-1.3520857
0.17003781
0.0085755372
-5.6644282
2.2344542
1.3436319
0.0046386472
-2.7861099
1.5739968
0.27609864
0.012452628
0.26398981
-0.2752963
-0.48979962
0.026217276
0.011355219
0.0078159152
-0.46727851
-0.01054123
0.23450908
-0.26791564
-0.38046727
0.13516685
-0.046872452
-0.066156887
0.03312844
-0.034928564
-0.032983385
0.012988307
0.092418529
-0.24744108
0.16986902
-0.011036404
0.062756486
-0.41764331
0.36872718
-0.51912677
-1.6195303
0.15986587
-0.159439
-0.21981278
-0.087024488
-0.27079648
0.017829569
-0.24970485
-0.19415961
-0.10059428
-0.048533298
-0.23087694
0.019249525
-0.2050606
-0.28274077
0.19642913
-0.22038834
-0.33884856
0.019480592
-0.34704268
0.051184289
-0.23276009
0.49088246
-1.5427089
0.78061843
-0.11634982
3.1467307
-5.0055809
1.7161531
0.023949033
-1.5160201
2.9751792
-1.5340378
0.01924994
-0.20814821
0.97605854
-0.1857263
0.019526981
-0.45155382
1.1525961
-0.72913063
-0.030180627
0.56192881
-0.9778648
0.19889098
-0.14967121
0.037598968
-0.34302282
0.065640412
-0.11816278
-0.1284821
-0.16608442
-0.21500205
-0.061145645
-0.021361446
-0.26756862
-0.25048816
-0.011424409
-0.014655031
-0.061919104
-0.11880607
-0.23695625
-0.41098124
-0.41938484
-0.57443535
0.13159455
-0.091471292
-0.0057666549
-0.3109369
-0.29215261
-0.20987211
-0.55419087
-0.011242105
-0.13453825
-0.15501727
-0.44248194
-0.2131779
-0.27147809
-0.1728562
-0.29741263
-0.36764789
-0.23840545
-0.11047344
-0.41315454
-0.27575654
-0.0046677333
-0.47021413
0.21101534
-0.1006311
0.027549315
-2.4701319
0.18185377
2.0159292
-0.025230313
-5.1523962
0.6658985
3.9267504
-0.00031545572
-0.60709274
0.29085729
0.26888201
0.0025730955
-0.16367668
-0.14788821
0.046863571
-0.070793897
-0.26754931
-0.39831215
0.19173314
-0.071279787
-0.014183251
-0.038999349
-0.29470408
-0.18586637
-0.32160369
-0.030775281
-0.082830168
-0.19978908
0.0027327258
-0.41371027
0.044840764
-0.17837866
-0.16911364
0.29070222
-0.2980884
-0.35257047
-0.20479554
-0.5626331
-0.47604704
-0.028786955
0.22173627
-0.10628724
-0.34028077
-0.013954087
-0.073950104
-0.061354399
-0.14663093
0.0089418748
-0.56078321
-0.1714863
0.40347403
0.10813596
0.28986982
0.13095935
-0.80363482
0.034028642
-0.046284989
0.71312177
-1.3514466
-0.038754042
-0.70970601
0.45213741
-0.13946395
-0.37311873
-0.26208198
-0.78204286
-0.32119003
0.34698507
2.6762602
-3.567029
-0.91698474
0.020189358
-0.8505168
-0.91738212
0.94955033
0.32223618
0.181122
-0.57188988
0.4804787
-0.25242248
0.011920544
-0.23296414
0.37659276
0.028988287
-0.023690784
-0.070607893
0.54033709
-0.019816061
0.35472539
-0.069535337
0.17987548
0.011040802
-0.019893816
0.13092652
0.16147174
0.017093992
-0.10381783
0.25881371
-0.068955757
0.24782847
0.93423748
0.31877512
-0.81579667
-0.27170381
0.17315902
-0.053875882
0.081853732
0.42276326
0.21959215
0.28182104
0.18268614
0.31822357
0.23753159
0.39634874
0.32807973
0.29108384
0.22963998
0.453464
0.29595023
0.27794963
0.28037703
0.43759102
0.30647451
0.37765366
0.35572568
0.65064037
0.48715696
0.31241941
0.1410583
1.4459696
0.44689217
-0.031086314
0.32103637
1.7580568
-0.18743734
-0.0023356788
0.63667274
0.58122683
0.63838637
-0.063530229
0.42905515
0.38493291
0.38781935
0.47030565
0.34010383
0.31658977
0.41184413
0.35616809
0.40156057
0.27586335
0.16312641
0.48211882
0.24005702
0.20587349
0.2552534
0.28060105
0.14176716
0.21861796
0.19770691
0.09829928
0.069484338
0.076474503
-0.11004119
0.15064815
0.028844871
0.78554946
-3.6879416
-0.11420427
-0.10388768
-0.20767733
-0.078265451
-0.010753752
-0.054264475
0.047757532
0.16296369
0.039162446
0.20025016
0.12250692
0.13569982
0.11312216
0.3808651
0.1196968
0.043232933
0.22852129
0.25185901
0.52505058
0.16122466
0.36149764
0.60742992
0.79803461
0.39829215
0.64377338
1.4926499
1.8335396
-0.27427018
-0.055326242
0.71954221
3.0424948
-0.49092719
-0.0018448773
1.6935886
1.5944475
-0.32862407
-0.046568885
0.75640082
0.63609993
0.39767787
0.55712563
0.53192627
0.53305793
0.256147
0.24863099
0.42525315
0.3310993
0.11327485
0.134115
0.16646382
0.21324961
0.17080756
-0.039915461
-0.011039034
0.15507108
0.10721828
-0.1582031
-0.12974109
-0.29725876
0.096171968
-0.38324994
-0.86317289
-1.9913834
-2.1441984
0.22883703
-0.1723489
0.050587095
-0.043454725
-0.15204668
-0.14001195
-0.015127288
-0.00037506601
-0.18638167
-0.19348918
-0.11867537
-0.12166794
-0.18359756
-0.13546941
-0.046337765
0.070463046
-0.022160534
-0.10284231
0.32114056
0.010640944
0.29194102
0.4654862
-0.21868515
0.4751471
0.68709004
0.35063538
0.51276207
1.7696046
-0.081222735
-0.18153217
0.86377203
3.4924796
0.00050529279
0.36883447
0.49797541
1.7005661
-0.09243273
0.18624188
0.063895255
0.32872519
0.45106494
-0.10752781
0.10034928
0.11183525
0.12716934
-0.19009314
0.022754684
0.0074056773
0.04526154
-0.19037573
-0.13312237
-0.012829485
-0.023005204
-0.12332868
-0.054548617
-0.060199518
0.0053383377
-0.06649591
0.062555231
-0.040893357
-0.24571179
-1.0163292
-1.5901039
1.4730734
-0.11278051
0.017894942
0.17354691
0.16176637
-0.070208848
0.026879314
0.029798746
0.094685309
0.048130084
0.01056564
0.062607162
0.014043659
0.023575567
0.025499089
-0.043888565
0.016902668
-0.20369953
-0.15685005
-0.10365756
-0.16859062
-0.12005756
0.28834227
-0.26169854
-0.74740732
-0.0033665688
-0.54155529
-0.11299706
-0.051468052
0.15427761
2.2614787
1.3309684
-4.99475
-0.0016359853
-0.01305096
-0.26676971
-0.41961461
0.15471007
-0.081916235
-0.023288304
-0.15381016
-0.17348698
-0.076741278
-0.0044078473
-0.019428521
0.030674763
0.037007742
0.11791192
0.053146917
0.05708199
0.14405806
0.062596507
0.065306477
0.035342298
0.042786296
0.059168305
0.11550822
0.02857274
0.052994184
0.076027952
0.17307827
0.063253269
0.48425385
-0.51551402
0.12793988
0.045064986
0.28156888
0.35212862
-0.18287952
0.12930401
0.10915696
0.044871248
0.25103194
0.18642317
0.11193156
0.12074938
0.20792106
0.19045331
0.018222027
0.23003055
0.14010689
0.19405246
-0.06809999
0.25469548
0.17670031
0.17013781
-0.03356174
0.1556548
0.4355357
-0.045004945
-0.13058528
0.25514719
0.38042322
-0.0049019046
-0.36072397
0.27373412
0.46778062
0.018319136
-0.42186221
0.49844754
0.46952078
-0.03940665
0.0085503263
0.34293714
0.32771057
0.010575901
0.30016863
0.15088147
0.29763505
-0.038790643
0.14339985
0.29043067
0.2550008
0.057924192
0.11986063
0.16429156
0.2065805
0.1566297
0.1170594
-0.09589164
0.32670698
0.12112681
0.14649661
0.072361745
-0.26395178
0.26802024
-0.24046221
3.1086459
-3.9325521
-0.58801669
0.068602532
0.10690053
0.088849261
-0.10932997
0.046899043
-0.058984447
0.11742384
-0.036118016
-0.0071356837
0.010692942
-0.086247891
-0.047383573
-0.29893827
0.11123781
-0.22096454
-0.10946979
-0.33648202
-0.040312652
-0.23119122
-0.18378717
-0.33853301
-0.57550305
-0.017772157
0.0014135968
-3.8128135
1.8114587
0.10597402
-0.0025384151
-5.2742152
2.2878501
0.55110604
0.022550842
-2.8688846
0.74250954
0.28509685
0.0035563584
-1.7142799
0.35582289
-0.039174519
0.009444138
-0.37512478
-0.30603421
-0.40311894
-0.01029829
-0.27644664
-0.1425384
-0.6000182
-0.066979267
-0.29093695
-0.21111938
-0.44686055
-0.12224794
-0.29522684
-0.18783396
-0.24372999
-0.27369601
-0.24191467
-0.30268973
-0.11629695
-0.20243703
0.1068112
-0.95694339
-0.3774429
-0.02996443
0.045146301
0.20653594
0.20303623
0.0099503621
0.19562081
0.43086737
0.15751746
0.13312797
0.19239312
0.18670234
0.38164312
0.24491055
0.23431441
0.33221379
0.51196349
0.22879706
0.43771759
0.61936444
0.57780802
0.28466183
0.76339608
0.73595595
1.0461287
0.25010484
0.11284657
1.6202215
1.7436416
-0.084279291
-0.81576997
2.2387741
2.5978518
-0.0023659412
0.80073112
1.2653433
1.3718891
-0.092767768
0.83189887
0.6723575
0.44015333
0.65857291
0.37240207
0.33254516
0.53690004
0.51847148
0.21497148
0.17065869
0.49616435
0.37101752
0.091657519
0.15184434
0.22423816
0.27342081
0.16191933
0.16636129
-0.047078378
0.11756723
-0.022367625
0.02043701
0.20141751
-0.25342342
-1.7790661
-1.1339821
-1.0005851
-0.041170817
-0.12635694
-0.16316709
-0.091434777
-0.076180503
-0.17000133
-0.11633617
-0.0258794
-0.18699248
-0.1692054
-0.012529586
-0.022826379
-0.22518359
-0.010598581
-0.13149972
-0.11297124
-0.029730892
-0.18268724
0.001581516
-0.082777448
-0.23362076
-0.25833786
0.036831833
0.081200197
-0.54789931
-0.37043348
-0.27643737
-0.98930526
0.67006648
5.013001
-6.4334483
-1.7444056
0.0075458223
-1.2728623
0.57243067
-0.42816639
0.66481715
-0.11908676
0.1405528
-0.27912173
-0.0018934679
-0.24281071
0.21208152
-0.23514757
-0.043391049
-0.025236983
-0.18351738
-0.032983538
-0.071390308
-0.0088682007
-0.25577548
-0.074246369
0.0086058602
-0.25945961
-0.099812657
0.019375131
-0.10354726
0.010558727
-0.042049348
-0.060588498
-0.17605311
0.53136718
-0.57930225
-0.540326
-0.088686533
0.14075285
0.085285388
-0.261343
0.017388172
-0.17216413
-0.11437678
0.15703706
-0.068701677
-0.018509852
-0.21242628
-0.18219878
-0.078012012
0.092672125
-0.23839262
-0.50226438
-0.17584313
-0.35567656
0.2755836
-0.88184416
-0.4301182
0.16852033
-0.28666899
-1.2264371
-0.48185551
-0.93731171
-0.96724218
-0.44550118
0.23028453
1.276288
-4.2249641
0.55950916
0.021419346
-0.43338382
-0.79099125
-0.5502612
0.24299748
-0.19717649
-0.037706096
-0.54816037
-0.45140639
-0.19498165
0.076701559
-0.3332904
-0.19527769
-0.0048884028
0.0043570115
-0.15449868
-0.062328968
0.16960487
-0.14286304
0.055913795
0.025945153
0.048783749
-0.0010365407
0.1921405
2.7391172e-05
0.32121074
0.086374275
0.087724783
0.0045290603
0.48889858
0.63515699
0.45916632
0.013766814
0.20102057
0.10390688
0.35554418
0.13072588
0.29949737
0.30480793
0.132457
0.199384
-0.017478224
0.45256424
0.085727133
0.086928315
0.099364065
0.40334374
0.09419065
0.24771367
0.25463659
0.64209104
0.092958033
0.061741274
0.99430436
-0.19447556
0.68250555
0.093964905
-1.2740984
1.2356231
2.1237853
-0.12095852
-6.2572036
4.9323859
3.3310916
0.024874367
0.29334545
-0.016994264
1.7107778
-0.11378378
0.24043824
0.48869827
0.41058311
0.15602875
0.28524506
0.2099345
0.18020676
0.22194223
0.11073483
0.36081851
0.0087006986
0.25079167
0.19580939
0.19995008
0.017982399
0.12704763
0.23680164
-0.0076305219
0.10508551
0.16502213
0.10429794
0.084825665
0.06567578
0.005365903
-0.74181199
-1.1863272
-1.1136788
0.024934305
0.27405679
0.19981287
0.26607844
0.0052766833
0.12964648
0.022595931
-0.015422385
-0.39522985
-0.29162791
-0.29445481
-0.18266565
-0.41314068
-0.33136553
-0.27889162
-0.57644242
-0.70502388
-0.38585252
-0.51015878
-1.059937
-0.82000995
-1.3432046
-0.93339521
-1.4123744
-0.77249229
-2.4476316
-1.5425311
-1.5139363
0.45827535
-0.37398243
-2.5199547
-2.9677103
0.002501335
-2.3093686
-1.587593
-1.3333832
0.4577978
-0.86316377
-0.69799292
-1.6951739
-0.91513097
-0.78351319
-0.63696396
-0.87252539
-0.63354528
-0.27615681
-0.42300066
-0.73626691
-0.4682321
-0.22966827
-0.30060008
-0.27785715
-0.31241968
-0.080398642
0.11244339
0.013585074
-0.21274529
0.39028639
0.29119942
0.29269403
-0.20505327
0.40263888
2.5116479
2.8969283
0.1973871
-0.41983318
0.42527139
0.36869109
0.30340204
-0.034464836
0.17121534
0.37609833
0.21977778
-0.027522823
-0.27781561
-0.44641325
-0.40721506
-0.52123559
0.25048369
-0.093860768
-0.33223277
-0.2082877
0.1904223
-0.18351471
-1.1317885
-0.15850037
0.72233301
0.1721005
-0.28289142
0.317902
-0.70904922
-0.18169422
-0.068917841
-0.40439507
-0.28959784
-0.34894672
-0.35815462
0.38267931
-1.2107506
0.31647268
0.46637589
0.44413877
-1.0241002
-0.36800411
0.2099978
0.29085481
-0.75224626
0.17359653
0.34944165
1.1339467
0.297703
-0.76713997
-0.31220037
0.29819265
-0.27360827
0.50060803
-0.46575966
-0.24424146
-0.20091383
-2.216152
-0.016453128
-0.4134832
-0.36905941
0.19474857
-0.35229546
-0.29857388
-0.46909627
0.63895512
-0.24564672
-0.83334124
-0.49414045
0.20206624
-0.55996186
-1.3361144
-1.1460073
0.24805698
-0.30717555
-0.019212244
0.19380021
-0.45866895
-1.1784304
6.0481181
-0.42512596
7.9736743
0.58146334
1.714314
-0.076332957
0.31268576
-1.0034282
-1.8147023
-1.9939322
-1.5361654
-1.4741775
0.51510584
-3.3758965
-5.740705
-1.376689
-0.059473883
-0.60439032
-1.3832371
-4.6858454
-0.64802527
1.7559966
-3.760246
6.4333715
-0.041108944
-0.90535963
-0.55133605
